// Combined source of 'unsat_v10_c33.c' from 'prop_unsat_v10_c33.c' and 'unsat_v10_c33.c'

#include "verifier_functions.h"

void entry(const float tensor_onnx__Gemm_0[1][10], float tensor_7[1][2]);

int main()
{
	float tensor_onnx__Gemm_0[1][10];
	float tensor_7[1][2];

	tensor_onnx__Gemm_0[0][0] = __VERIFIER_nondet_float();
	tensor_onnx__Gemm_0[0][1] = __VERIFIER_nondet_float();
	tensor_onnx__Gemm_0[0][2] = __VERIFIER_nondet_float();
	tensor_onnx__Gemm_0[0][3] = __VERIFIER_nondet_float();
	tensor_onnx__Gemm_0[0][4] = __VERIFIER_nondet_float();
	tensor_onnx__Gemm_0[0][5] = __VERIFIER_nondet_float();
	tensor_onnx__Gemm_0[0][6] = __VERIFIER_nondet_float();
	tensor_onnx__Gemm_0[0][7] = __VERIFIER_nondet_float();
	tensor_onnx__Gemm_0[0][8] = __VERIFIER_nondet_float();
	tensor_onnx__Gemm_0[0][9] = __VERIFIER_nondet_float();

	__VERIFIER_assume(tensor_onnx__Gemm_0[0][0] >= 0.0f && tensor_onnx__Gemm_0[0][0] <= 1.0f);
	__VERIFIER_assume(tensor_onnx__Gemm_0[0][1] >= 0.0f && tensor_onnx__Gemm_0[0][1] <= 1.0f);
	__VERIFIER_assume(tensor_onnx__Gemm_0[0][2] >= 0.0f && tensor_onnx__Gemm_0[0][2] <= 1.0f);
	__VERIFIER_assume(tensor_onnx__Gemm_0[0][3] >= 0.0f && tensor_onnx__Gemm_0[0][3] <= 1.0f);
	__VERIFIER_assume(tensor_onnx__Gemm_0[0][4] >= 0.0f && tensor_onnx__Gemm_0[0][4] <= 1.0f);
	__VERIFIER_assume(tensor_onnx__Gemm_0[0][5] >= 0.0f && tensor_onnx__Gemm_0[0][5] <= 1.0f);
	__VERIFIER_assume(tensor_onnx__Gemm_0[0][6] >= 0.0f && tensor_onnx__Gemm_0[0][6] <= 1.0f);
	__VERIFIER_assume(tensor_onnx__Gemm_0[0][7] >= 0.0f && tensor_onnx__Gemm_0[0][7] <= 1.0f);
	__VERIFIER_assume(tensor_onnx__Gemm_0[0][8] >= 0.0f && tensor_onnx__Gemm_0[0][8] <= 1.0f);
	__VERIFIER_assume(tensor_onnx__Gemm_0[0][9] >= 0.0f && tensor_onnx__Gemm_0[0][9] <= 1.0f);

	entry(tensor_onnx__Gemm_0, tensor_7);

	// Expected result: UNSAT - assertion can be violated
	__VERIFIER_assert(!(tensor_7[0][0] >= 1.0f || tensor_7[0][1] <= 0.0f));

	return 0;
}

// --- Network source ---

// This file is computer-generated by onnx2c 
// (TODO: add creating command line here)
// (TODO: print creation date here )

// ONNX model:
// produced by pytorch, version 2.7.1
// ONNX IR version: 17
// Model documentation: 
/*

*/

#include <float.h>
#include <math.h>
#include <stdbool.h>
#include <stdint.h>
#include <string.h>

#define MAX(X,Y) ( X > Y ? X : Y)
#define MIN(X,Y) ( X < Y ? X : Y)
#define CLIP(X,L) ( MAX(MIN(X,L), -L) )

#if __STDC_VERSION__ < 199901L
#define FUNC_PREFIX
#else
#define FUNC_PREFIX static inline
#endif

static const float tensor_0_weight[53][10] = 
{
  {-1.00000000000000000000f, 0.00000000000000000000f, 0.00000000000000000000f, 0.00000000000000000000f, 1.00000000000000000000f, 0.00000000000000000000f, -1.00000000000000000000f, 0.00000000000000000000f, 0.00000000000000000000f, 0.00000000000000000000f},
  {1.00000000000000000000f, 0.00000000000000000000f, 0.00000000000000000000f, -1.00000000000000000000f, 1.00000000000000000000f, 0.00000000000000000000f, 1.00000000000000000000f, 0.00000000000000000000f, 0.00000000000000000000f, 0.00000000000000000000f},
  {1.00000000000000000000f, 0.00000000000000000000f, 0.00000000000000000000f, 0.00000000000000000000f, -1.00000000000000000000f, -1.00000000000000000000f, -1.00000000000000000000f, 0.00000000000000000000f, 1.00000000000000000000f, 1.00000000000000000000f},
  {1.00000000000000000000f, 0.00000000000000000000f, 1.00000000000000000000f, -1.00000000000000000000f, -1.00000000000000000000f, 1.00000000000000000000f, -1.00000000000000000000f, 1.00000000000000000000f, 1.00000000000000000000f, 1.00000000000000000000f},
  {-1.00000000000000000000f, 0.00000000000000000000f, 0.00000000000000000000f, 0.00000000000000000000f, 0.00000000000000000000f, -1.00000000000000000000f, 1.00000000000000000000f, 0.00000000000000000000f, 0.00000000000000000000f, -1.00000000000000000000f},
  {1.00000000000000000000f, 0.00000000000000000000f, 0.00000000000000000000f, 1.00000000000000000000f, 0.00000000000000000000f, 1.00000000000000000000f, -1.00000000000000000000f, 1.00000000000000000000f, -1.00000000000000000000f, 1.00000000000000000000f},
  {1.00000000000000000000f, 0.00000000000000000000f, -1.00000000000000000000f, -1.00000000000000000000f, -1.00000000000000000000f, 1.00000000000000000000f, -1.00000000000000000000f, -1.00000000000000000000f, 1.00000000000000000000f, 1.00000000000000000000f},
  {1.00000000000000000000f, 0.00000000000000000000f, -1.00000000000000000000f, 0.00000000000000000000f, -1.00000000000000000000f, 0.00000000000000000000f, -1.00000000000000000000f, 0.00000000000000000000f, 0.00000000000000000000f, -1.00000000000000000000f},
  {1.00000000000000000000f, 0.00000000000000000000f, 0.00000000000000000000f, 0.00000000000000000000f, -1.00000000000000000000f, 0.00000000000000000000f, 1.00000000000000000000f, 0.00000000000000000000f, 0.00000000000000000000f, 1.00000000000000000000f},
  {1.00000000000000000000f, 0.00000000000000000000f, -1.00000000000000000000f, 0.00000000000000000000f, 0.00000000000000000000f, -1.00000000000000000000f, -1.00000000000000000000f, 1.00000000000000000000f, -1.00000000000000000000f, 1.00000000000000000000f},
  {1.00000000000000000000f, 0.00000000000000000000f, -1.00000000000000000000f, -1.00000000000000000000f, -1.00000000000000000000f, 1.00000000000000000000f, -1.00000000000000000000f, 1.00000000000000000000f, 1.00000000000000000000f, 1.00000000000000000000f},
  {1.00000000000000000000f, 0.00000000000000000000f, 1.00000000000000000000f, 1.00000000000000000000f, -1.00000000000000000000f, 1.00000000000000000000f, -1.00000000000000000000f, 0.00000000000000000000f, -1.00000000000000000000f, -1.00000000000000000000f},
  {1.00000000000000000000f, 0.00000000000000000000f, 1.00000000000000000000f, 0.00000000000000000000f, -1.00000000000000000000f, -1.00000000000000000000f, -1.00000000000000000000f, 1.00000000000000000000f, -1.00000000000000000000f, 1.00000000000000000000f},
  {1.00000000000000000000f, 0.00000000000000000000f, -1.00000000000000000000f, 0.00000000000000000000f, 1.00000000000000000000f, 0.00000000000000000000f, -1.00000000000000000000f, 0.00000000000000000000f, 0.00000000000000000000f, -1.00000000000000000000f},
  {1.00000000000000000000f, 0.00000000000000000000f, 0.00000000000000000000f, 1.00000000000000000000f, -1.00000000000000000000f, 1.00000000000000000000f, -1.00000000000000000000f, 0.00000000000000000000f, 1.00000000000000000000f, 1.00000000000000000000f},
  {-1.00000000000000000000f, 0.00000000000000000000f, 0.00000000000000000000f, 0.00000000000000000000f, -1.00000000000000000000f, 0.00000000000000000000f, 1.00000000000000000000f, 0.00000000000000000000f, 0.00000000000000000000f, 1.00000000000000000000f},
  {1.00000000000000000000f, 0.00000000000000000000f, 1.00000000000000000000f, 0.00000000000000000000f, -1.00000000000000000000f, 1.00000000000000000000f, -1.00000000000000000000f, 0.00000000000000000000f, 1.00000000000000000000f, -1.00000000000000000000f},
  {1.00000000000000000000f, 0.00000000000000000000f, 1.00000000000000000000f, 0.00000000000000000000f, 0.00000000000000000000f, -1.00000000000000000000f, -1.00000000000000000000f, 0.00000000000000000000f, 0.00000000000000000000f, -1.00000000000000000000f},
  {1.00000000000000000000f, 0.00000000000000000000f, 0.00000000000000000000f, -1.00000000000000000000f, 0.00000000000000000000f, 1.00000000000000000000f, -1.00000000000000000000f, 1.00000000000000000000f, -1.00000000000000000000f, 1.00000000000000000000f},
  {-1.00000000000000000000f, 0.00000000000000000000f, 0.00000000000000000000f, 0.00000000000000000000f, 0.00000000000000000000f, 1.00000000000000000000f, 1.00000000000000000000f, 0.00000000000000000000f, 1.00000000000000000000f, -1.00000000000000000000f},
  {1.00000000000000000000f, 0.00000000000000000000f, 0.00000000000000000000f, 1.00000000000000000000f, 1.00000000000000000000f, 0.00000000000000000000f, 1.00000000000000000000f, 0.00000000000000000000f, 0.00000000000000000000f, 0.00000000000000000000f},
  {1.00000000000000000000f, 0.00000000000000000000f, 1.00000000000000000000f, 0.00000000000000000000f, 1.00000000000000000000f, 1.00000000000000000000f, -1.00000000000000000000f, 0.00000000000000000000f, -1.00000000000000000000f, -1.00000000000000000000f},
  {1.00000000000000000000f, 0.00000000000000000000f, 0.00000000000000000000f, 0.00000000000000000000f, -1.00000000000000000000f, 0.00000000000000000000f, 1.00000000000000000000f, 0.00000000000000000000f, 0.00000000000000000000f, -1.00000000000000000000f},
  {1.00000000000000000000f, 0.00000000000000000000f, 0.00000000000000000000f, 0.00000000000000000000f, 1.00000000000000000000f, 1.00000000000000000000f, -1.00000000000000000000f, 0.00000000000000000000f, 1.00000000000000000000f, 1.00000000000000000000f},
  {1.00000000000000000000f, 0.00000000000000000000f, 1.00000000000000000000f, 0.00000000000000000000f, 1.00000000000000000000f, -1.00000000000000000000f, -1.00000000000000000000f, 1.00000000000000000000f, -1.00000000000000000000f, 1.00000000000000000000f},
  {-1.00000000000000000000f, 0.00000000000000000000f, 0.00000000000000000000f, 0.00000000000000000000f, 0.00000000000000000000f, 1.00000000000000000000f, 1.00000000000000000000f, 0.00000000000000000000f, -1.00000000000000000000f, -1.00000000000000000000f},
  {-1.00000000000000000000f, 0.00000000000000000000f, 0.00000000000000000000f, 0.00000000000000000000f, -1.00000000000000000000f, 0.00000000000000000000f, -1.00000000000000000000f, 0.00000000000000000000f, 0.00000000000000000000f, 0.00000000000000000000f},
  {1.00000000000000000000f, 0.00000000000000000000f, 1.00000000000000000000f, 0.00000000000000000000f, 1.00000000000000000000f, 1.00000000000000000000f, -1.00000000000000000000f, 0.00000000000000000000f, 1.00000000000000000000f, -1.00000000000000000000f},
  {1.00000000000000000000f, 0.00000000000000000000f, 0.00000000000000000000f, 0.00000000000000000000f, 1.00000000000000000000f, -1.00000000000000000000f, -1.00000000000000000000f, 0.00000000000000000000f, 1.00000000000000000000f, 1.00000000000000000000f},
  {-1.00000000000000000000f, 0.00000000000000000000f, 0.00000000000000000000f, 0.00000000000000000000f, 1.00000000000000000000f, 0.00000000000000000000f, 1.00000000000000000000f, 0.00000000000000000000f, 0.00000000000000000000f, 1.00000000000000000000f},
  {1.00000000000000000000f, 0.00000000000000000000f, 1.00000000000000000000f, -1.00000000000000000000f, -1.00000000000000000000f, 1.00000000000000000000f, -1.00000000000000000000f, 0.00000000000000000000f, -1.00000000000000000000f, -1.00000000000000000000f},
  {1.00000000000000000000f, 0.00000000000000000000f, 0.00000000000000000000f, 0.00000000000000000000f, 0.00000000000000000000f, 0.00000000000000000000f, -1.00000000000000000000f, -1.00000000000000000000f, -1.00000000000000000000f, 1.00000000000000000000f},
  {1.00000000000000000000f, 0.00000000000000000000f, 1.00000000000000000000f, -1.00000000000000000000f, -1.00000000000000000000f, 1.00000000000000000000f, -1.00000000000000000000f, -1.00000000000000000000f, 1.00000000000000000000f, 1.00000000000000000000f},
  {1.00000000000000000000f, 0.00000000000000000000f, 0.00000000000000000000f, 0.00000000000000000000f, 0.00000000000000000000f, 0.00000000000000000000f, 0.00000000000000000000f, 0.00000000000000000000f, 0.00000000000000000000f, 0.00000000000000000000f},
  {0.00000000000000000000f, 1.00000000000000000000f, 0.00000000000000000000f, 0.00000000000000000000f, 0.00000000000000000000f, 0.00000000000000000000f, 0.00000000000000000000f, 0.00000000000000000000f, 0.00000000000000000000f, 0.00000000000000000000f},
  {0.00000000000000000000f, 0.00000000000000000000f, 1.00000000000000000000f, 0.00000000000000000000f, 0.00000000000000000000f, 0.00000000000000000000f, 0.00000000000000000000f, 0.00000000000000000000f, 0.00000000000000000000f, 0.00000000000000000000f},
  {0.00000000000000000000f, 0.00000000000000000000f, 0.00000000000000000000f, 1.00000000000000000000f, 0.00000000000000000000f, 0.00000000000000000000f, 0.00000000000000000000f, 0.00000000000000000000f, 0.00000000000000000000f, 0.00000000000000000000f},
  {0.00000000000000000000f, 0.00000000000000000000f, 0.00000000000000000000f, 0.00000000000000000000f, 1.00000000000000000000f, 0.00000000000000000000f, 0.00000000000000000000f, 0.00000000000000000000f, 0.00000000000000000000f, 0.00000000000000000000f},
  {0.00000000000000000000f, 0.00000000000000000000f, 0.00000000000000000000f, 0.00000000000000000000f, 0.00000000000000000000f, 1.00000000000000000000f, 0.00000000000000000000f, 0.00000000000000000000f, 0.00000000000000000000f, 0.00000000000000000000f},
  {0.00000000000000000000f, 0.00000000000000000000f, 0.00000000000000000000f, 0.00000000000000000000f, 0.00000000000000000000f, 0.00000000000000000000f, 1.00000000000000000000f, 0.00000000000000000000f, 0.00000000000000000000f, 0.00000000000000000000f},
  {0.00000000000000000000f, 0.00000000000000000000f, 0.00000000000000000000f, 0.00000000000000000000f, 0.00000000000000000000f, 0.00000000000000000000f, 0.00000000000000000000f, 1.00000000000000000000f, 0.00000000000000000000f, 0.00000000000000000000f},
  {0.00000000000000000000f, 0.00000000000000000000f, 0.00000000000000000000f, 0.00000000000000000000f, 0.00000000000000000000f, 0.00000000000000000000f, 0.00000000000000000000f, 0.00000000000000000000f, 1.00000000000000000000f, 0.00000000000000000000f},
  {0.00000000000000000000f, 0.00000000000000000000f, 0.00000000000000000000f, 0.00000000000000000000f, 0.00000000000000000000f, 0.00000000000000000000f, 0.00000000000000000000f, 0.00000000000000000000f, 0.00000000000000000000f, 1.00000000000000000000f},
  {2.00000000000000000000f, 0.00000000000000000000f, 0.00000000000000000000f, 0.00000000000000000000f, 0.00000000000000000000f, 0.00000000000000000000f, 0.00000000000000000000f, 0.00000000000000000000f, 0.00000000000000000000f, 0.00000000000000000000f},
  {0.00000000000000000000f, 2.00000000000000000000f, 0.00000000000000000000f, 0.00000000000000000000f, 0.00000000000000000000f, 0.00000000000000000000f, 0.00000000000000000000f, 0.00000000000000000000f, 0.00000000000000000000f, 0.00000000000000000000f},
  {0.00000000000000000000f, 0.00000000000000000000f, 2.00000000000000000000f, 0.00000000000000000000f, 0.00000000000000000000f, 0.00000000000000000000f, 0.00000000000000000000f, 0.00000000000000000000f, 0.00000000000000000000f, 0.00000000000000000000f},
  {0.00000000000000000000f, 0.00000000000000000000f, 0.00000000000000000000f, 2.00000000000000000000f, 0.00000000000000000000f, 0.00000000000000000000f, 0.00000000000000000000f, 0.00000000000000000000f, 0.00000000000000000000f, 0.00000000000000000000f},
  {0.00000000000000000000f, 0.00000000000000000000f, 0.00000000000000000000f, 0.00000000000000000000f, 2.00000000000000000000f, 0.00000000000000000000f, 0.00000000000000000000f, 0.00000000000000000000f, 0.00000000000000000000f, 0.00000000000000000000f},
  {0.00000000000000000000f, 0.00000000000000000000f, 0.00000000000000000000f, 0.00000000000000000000f, 0.00000000000000000000f, 2.00000000000000000000f, 0.00000000000000000000f, 0.00000000000000000000f, 0.00000000000000000000f, 0.00000000000000000000f},
  {0.00000000000000000000f, 0.00000000000000000000f, 0.00000000000000000000f, 0.00000000000000000000f, 0.00000000000000000000f, 0.00000000000000000000f, 2.00000000000000000000f, 0.00000000000000000000f, 0.00000000000000000000f, 0.00000000000000000000f},
  {0.00000000000000000000f, 0.00000000000000000000f, 0.00000000000000000000f, 0.00000000000000000000f, 0.00000000000000000000f, 0.00000000000000000000f, 0.00000000000000000000f, 2.00000000000000000000f, 0.00000000000000000000f, 0.00000000000000000000f},
  {0.00000000000000000000f, 0.00000000000000000000f, 0.00000000000000000000f, 0.00000000000000000000f, 0.00000000000000000000f, 0.00000000000000000000f, 0.00000000000000000000f, 0.00000000000000000000f, 2.00000000000000000000f, 0.00000000000000000000f},
  {0.00000000000000000000f, 0.00000000000000000000f, 0.00000000000000000000f, 0.00000000000000000000f, 0.00000000000000000000f, 0.00000000000000000000f, 0.00000000000000000000f, 0.00000000000000000000f, 0.00000000000000000000f, 2.00000000000000000000f}
};
static const float tensor_0_bias[53] = 
{0.00000000000000000000f, -2.00000000000000000000f, -2.00000000000000000000f, -5.00000000000000000000f, 0.00000000000000000000f, -4.00000000000000000000f, -3.00000000000000000000f, 0.00000000000000000000f, -2.00000000000000000000f, -2.00000000000000000000f, -4.00000000000000000000f, -3.00000000000000000000f, -3.00000000000000000000f, -1.00000000000000000000f, -4.00000000000000000000f, -1.00000000000000000000f, -3.00000000000000000000f, -1.00000000000000000000f, -3.00000000000000000000f, -2.00000000000000000000f, -3.00000000000000000000f, -3.00000000000000000000f, -1.00000000000000000000f, -4.00000000000000000000f, -4.00000000000000000000f, -1.00000000000000000000f, 1.00000000000000000000f, -4.00000000000000000000f, -3.00000000000000000000f, -2.00000000000000000000f, -2.00000000000000000000f, -1.00000000000000000000f, -4.00000000000000000000f, 0.00000000000000000000f, 0.00000000000000000000f, 0.00000000000000000000f, 0.00000000000000000000f, 0.00000000000000000000f, 0.00000000000000000000f, 0.00000000000000000000f, 0.00000000000000000000f, 0.00000000000000000000f, 0.00000000000000000000f, -1.00000000000000000000f, -1.00000000000000000000f, -1.00000000000000000000f, -1.00000000000000000000f, -1.00000000000000000000f, -1.00000000000000000000f, -1.00000000000000000000f, -1.00000000000000000000f, -1.00000000000000000000f, -1.00000000000000000000f};
static const float tensor_2_weight[2][53] = 
{
  {-1.00000000000000000000f, -1.00000000000000000000f, -1.00000000000000000000f, -1.00000000000000000000f, -1.00000000000000000000f, -1.00000000000000000000f, -1.00000000000000000000f, -1.00000000000000000000f, -1.00000000000000000000f, -1.00000000000000000000f, -1.00000000000000000000f, -1.00000000000000000000f, -1.00000000000000000000f, -1.00000000000000000000f, -1.00000000000000000000f, -1.00000000000000000000f, -1.00000000000000000000f, -1.00000000000000000000f, -1.00000000000000000000f, -1.00000000000000000000f, -1.00000000000000000000f, -1.00000000000000000000f, -1.00000000000000000000f, -1.00000000000000000000f, -1.00000000000000000000f, -1.00000000000000000000f, -1.00000000000000000000f, -1.00000000000000000000f, -1.00000000000000000000f, -1.00000000000000000000f, -1.00000000000000000000f, -1.00000000000000000000f, -1.00000000000000000000f, 0.00000000000000000000f, 0.00000000000000000000f, 0.00000000000000000000f, 0.00000000000000000000f, 0.00000000000000000000f, 0.00000000000000000000f, 0.00000000000000000000f, 0.00000000000000000000f, 0.00000000000000000000f, 0.00000000000000000000f, 0.00000000000000000000f, 0.00000000000000000000f, 0.00000000000000000000f, 0.00000000000000000000f, 0.00000000000000000000f, 0.00000000000000000000f, 0.00000000000000000000f, 0.00000000000000000000f, 0.00000000000000000000f, 0.00000000000000000000f},
  {0.00000000000000000000f, 0.00000000000000000000f, 0.00000000000000000000f, 0.00000000000000000000f, 0.00000000000000000000f, 0.00000000000000000000f, 0.00000000000000000000f, 0.00000000000000000000f, 0.00000000000000000000f, 0.00000000000000000000f, 0.00000000000000000000f, 0.00000000000000000000f, 0.00000000000000000000f, 0.00000000000000000000f, 0.00000000000000000000f, 0.00000000000000000000f, 0.00000000000000000000f, 0.00000000000000000000f, 0.00000000000000000000f, 0.00000000000000000000f, 0.00000000000000000000f, 0.00000000000000000000f, 0.00000000000000000000f, 0.00000000000000000000f, 0.00000000000000000000f, 0.00000000000000000000f, 0.00000000000000000000f, 0.00000000000000000000f, 0.00000000000000000000f, 0.00000000000000000000f, 0.00000000000000000000f, 0.00000000000000000000f, 0.00000000000000000000f, 1.00000000000000000000f, 1.00000000000000000000f, 1.00000000000000000000f, 1.00000000000000000000f, 1.00000000000000000000f, 1.00000000000000000000f, 1.00000000000000000000f, 1.00000000000000000000f, 1.00000000000000000000f, 1.00000000000000000000f, -1.00000000000000000000f, -1.00000000000000000000f, -1.00000000000000000000f, -1.00000000000000000000f, -1.00000000000000000000f, -1.00000000000000000000f, -1.00000000000000000000f, -1.00000000000000000000f, -1.00000000000000000000f, -1.00000000000000000000f}
};
static const float tensor_2_bias[2] = 
{1.00000000000000000000f, 0.00000000000000000000f};
union tensor_union_0 {
float tensor__0_Gemm_output_0[1][53];
};
static union tensor_union_0 tu0;

union tensor_union_1 {
float tensor__1_Relu_output_0[1][53];
};
static union tensor_union_1 tu1;


/*
 * Operand:           Gemm
 * Name in ONNX file: /0/Gemm
 */
FUNC_PREFIX void node__0_Gemm( const float A[1][10], const float B[53][10], const float C[53], float Y[1][53] )
{
	/* Gemm */
	/* alpha   = 1.00000000000000000000
	   beta    = 1.00000000000000000000
	   transA  = 0
	   transB  = 1
	 */
	const int M = 1;
	const int K = 10;
	const int N = 53;
	float alpha = 1.00000000000000000000;
	float beta = 1.00000000000000000000;
	float (*C_)[53]  = (float(*)[53])C;
	for( uint32_t r=0; r<M; r++ )
		for( uint32_t c=0; c<N; c++ ) {
			float ABrc = 0;
			for( uint32_t i=0; i<K; i++ ) {
				float B_el = B[c][i];
				ABrc += A[r][i] * B_el;
			}
			float tmp = ABrc * alpha;
			tmp += C_[0][c] * beta;
			Y[r][c] = tmp;
	}
}

/*
 * Operand:           Relu
 * Name in ONNX file: /1/Relu
 */
FUNC_PREFIX void node__1_Relu( const float X[1][53], float Y[1][53] )
{
	/*Relu*/
	float *X_ptr = (float*)X;
	float *Y_ptr = (float*)Y;
	uint32_t i;
	for( i=0; i<53; i++ )
		Y_ptr[i] = X_ptr[i] > 0 ? X_ptr[i] : 0;

}

/*
 * Operand:           Gemm
 * Name in ONNX file: /2/Gemm
 */
FUNC_PREFIX void node__2_Gemm( const float A[1][53], const float B[2][53], const float C[2], float Y[1][2] )
{
	/* Gemm */
	/* alpha   = 1.00000000000000000000
	   beta    = 1.00000000000000000000
	   transA  = 0
	   transB  = 1
	 */
	const int M = 1;
	const int K = 53;
	const int N = 2;
	float alpha = 1.00000000000000000000;
	float beta = 1.00000000000000000000;
	float (*C_)[2]  = (float(*)[2])C;
	for( uint32_t r=0; r<M; r++ )
		for( uint32_t c=0; c<N; c++ ) {
			float ABrc = 0;
			for( uint32_t i=0; i<K; i++ ) {
				float B_el = B[c][i];
				ABrc += A[r][i] * B_el;
			}
			float tmp = ABrc * alpha;
			tmp += C_[0][c] * beta;
			Y[r][c] = tmp;
	}
}


void entry(const float tensor_onnx__Gemm_0[1][10], float tensor_7[1][2]){
	node__0_Gemm( tensor_onnx__Gemm_0, tensor_0_weight, tensor_0_bias, tu0.tensor__0_Gemm_output_0);
	node__1_Relu( tu0.tensor__0_Gemm_output_0, tu1.tensor__1_Relu_output_0);
	node__2_Gemm( tu1.tensor__1_Relu_output_0, tensor_2_weight, tensor_2_bias, tensor_7);
}
