// This file is computer-generated by onnx2c 
// (TODO: add creating command line here)
// (TODO: print creation date here )

// ONNX model:
// produced by pytorch, version 2.8.0
// ONNX IR version: 18
// Model documentation: 
/*

*/

#include <float.h>
#include <math.h>
#include <stdbool.h>
#include <stdint.h>
#include <string.h>

#define MAX(X,Y) ( X > Y ? X : Y)
#define MIN(X,Y) ( X < Y ? X : Y)
#define CLIP(X,L) ( MAX(MIN(X,L), -L) )

#if __STDC_VERSION__ < 199901L
#define FUNC_PREFIX
#else
#define FUNC_PREFIX static inline
#endif

static const float tensor_0_weight[478][96] = 
{
  {0.00000000000000000000f, 0.00000000000000000000f, 0.00000000000000000000f, 0.00000000000000000000f, 0.00000000000000000000f, 0.00000000000000000000f, 0.00000000000000000000f, 1.00000000000000000000f, 0.00000000000000000000f, 0.00000000000000000000f, 0.00000000000000000000f, 0.00000000000000000000f, 0.00000000000000000000f, 0.00000000000000000000f, 0.00000000000000000000f, 0.00000000000000000000f, 0.00000000000000000000f, 1.00000000000000000000f, 0.00000000000000000000f, 0.00000000000000000000f, 1.00000000000000000000f, -1.00000000000000000000f, 0.00000000000000000000f, 0.00000000000000000000f, 0.00000000000000000000f, 0.00000000000000000000f, 0.00000000000000000000f, -1.00000000000000000000f, 0.00000000000000000000f, 0.00000000000000000000f, 0.00000000000000000000f, 0.00000000000000000000f, -1.00000000000000000000f, 0.00000000000000000000f, 0.00000000000000000000f, 0.00000000000000000000f, 0.00000000000000000000f, 0.00000000000000000000f, 0.00000000000000000000f, 0.00000000000000000000f, 0.00000000000000000000f, 0.00000000000000000000f, 0.00000000000000000000f, 0.00000000000000000000f, 0.00000000000000000000f, 0.00000000000000000000f, 0.00000000000000000000f, -1.00000000000000000000f, 0.00000000000000000000f, 0.00000000000000000000f, 0.00000000000000000000f, 0.00000000000000000000f, 0.00000000000000000000f, 0.00000000000000000000f, -1.00000000000000000000f, 0.00000000000000000000f, 0.00000000000000000000f, 1.00000000000000000000f, 0.00000000000000000000f, 0.00000000000000000000f, 0.00000000000000000000f, 1.00000000000000000000f, 0.00000000000000000000f, 0.00000000000000000000f, -1.00000000000000000000f, 0.00000000000000000000f, 0.00000000000000000000f, 1.00000000000000000000f, 0.00000000000000000000f, 0.00000000000000000000f, 0.00000000000000000000f, 1.00000000000000000000f, 0.00000000000000000000f, 0.00000000000000000000f, 0.00000000000000000000f, 0.00000000000000000000f, 0.00000000000000000000f, 1.00000000000000000000f, -1.00000000000000000000f, 0.00000000000000000000f, 0.00000000000000000000f, 1.00000000000000000000f, 0.00000000000000000000f, 0.00000000000000000000f, 0.00000000000000000000f, 0.00000000000000000000f, 0.00000000000000000000f, -1.00000000000000000000f, 0.00000000000000000000f, 0.00000000000000000000f, 0.00000000000000000000f, 0.00000000000000000000f, 0.00000000000000000000f, 1.00000000000000000000f, -1.00000000000000000000f, 1.00000000000000000000f},
  {-1.00000000000000000000f, 1.00000000000000000000f, 1.00000000000000000000f, 1.00000000000000000000f, 1.00000000000000000000f, 1.00000000000000000000f, -1.00000000000000000000f, -1.00000000000000000000f, -1.00000000000000000000f, 1.00000000000000000000f, 1.00000000000000000000f, 0.00000000000000000000f, 1.00000000000000000000f, 1.00000000000000000000f, -1.00000000000000000000f, 0.00000000000000000000f, 1.00000000000000000000f, 1.00000000000000000000f, 0.00000000000000000000f, 1.00000000000000000000f, -1.00000000000000000000f, -1.00000000000000000000f, 0.00000000000000000000f, 1.00000000000000000000f, 0.00000000000000000000f, -1.00000000000000000000f, -1.00000000000000000000f, 0.00000000000000000000f, -1.00000000000000000000f, 0.00000000000000000000f, -1.00000000000000000000f, -1.00000000000000000000f, 0.00000000000000000000f, -1.00000000000000000000f, -1.00000000000000000000f, -1.00000000000000000000f, 1.00000000000000000000f, 1.00000000000000000000f, -1.00000000000000000000f, 1.00000000000000000000f, 1.00000000000000000000f, -1.00000000000000000000f, 0.00000000000000000000f, 0.00000000000000000000f, 1.00000000000000000000f, 0.00000000000000000000f, -1.00000000000000000000f, 1.00000000000000000000f, -1.00000000000000000000f, 0.00000000000000000000f, 0.00000000000000000000f, 0.00000000000000000000f, 1.00000000000000000000f, -1.00000000000000000000f, 0.00000000000000000000f, 1.00000000000000000000f, -1.00000000000000000000f, 1.00000000000000000000f, 1.00000000000000000000f, 0.00000000000000000000f, 0.00000000000000000000f, -1.00000000000000000000f, 0.00000000000000000000f, -1.00000000000000000000f, 0.00000000000000000000f, 1.00000000000000000000f, -1.00000000000000000000f, -1.00000000000000000000f, 0.00000000000000000000f, 0.00000000000000000000f, -1.00000000000000000000f, 0.00000000000000000000f, 1.00000000000000000000f, 1.00000000000000000000f, 1.00000000000000000000f, 0.00000000000000000000f, 1.00000000000000000000f, 1.00000000000000000000f, -1.00000000000000000000f, -1.00000000000000000000f, -1.00000000000000000000f, -1.00000000000000000000f, -1.00000000000000000000f, -1.00000000000000000000f, -1.00000000000000000000f, 1.00000000000000000000f, -1.00000000000000000000f, 1.00000000000000000000f, -1.00000000000000000000f, -1.00000000000000000000f, 1.00000000000000000000f, 0.00000000000000000000f, 1.00000000000000000000f, 0.00000000000000000000f, -1.00000000000000000000f, 0.00000000000000000000f},
  {1.00000000000000000000f, -1.00000000000000000000f, 1.00000000000000000000f, -1.00000000000000000000f, 1.00000000000000000000f, -1.00000000000000000000f, -1.00000000000000000000f, 1.00000000000000000000f, 1.00000000000000000000f, -1.00000000000000000000f, -1.00000000000000000000f, -1.00000000000000000000f, 1.00000000000000000000f, -1.00000000000000000000f, -1.00000000000000000000f, -1.00000000000000000000f, -1.00000000000000000000f, -1.00000000000000000000f, 1.00000000000000000000f, 1.00000000000000000000f, 1.00000000000000000000f, 1.00000000000000000000f, 1.00000000000000000000f, 1.00000000000000000000f, 1.00000000000000000000f, -1.00000000000000000000f, 1.00000000000000000000f, -1.00000000000000000000f, 1.00000000000000000000f, 1.00000000000000000000f, 1.00000000000000000000f, 1.00000000000000000000f, 1.00000000000000000000f, -1.00000000000000000000f, -1.00000000000000000000f, 0.00000000000000000000f, -1.00000000000000000000f, -1.00000000000000000000f, 1.00000000000000000000f, -1.00000000000000000000f, 1.00000000000000000000f, -1.00000000000000000000f, -1.00000000000000000000f, -1.00000000000000000000f, 1.00000000000000000000f, 1.00000000000000000000f, -1.00000000000000000000f, -1.00000000000000000000f, 1.00000000000000000000f, -1.00000000000000000000f, -1.00000000000000000000f, -1.00000000000000000000f, -1.00000000000000000000f, 1.00000000000000000000f, -1.00000000000000000000f, 1.00000000000000000000f, 0.00000000000000000000f, -1.00000000000000000000f, 1.00000000000000000000f, 0.00000000000000000000f, -1.00000000000000000000f, 1.00000000000000000000f, -1.00000000000000000000f, -1.00000000000000000000f, 1.00000000000000000000f, -1.00000000000000000000f, 1.00000000000000000000f, 1.00000000000000000000f, 1.00000000000000000000f, 1.00000000000000000000f, -1.00000000000000000000f, -1.00000000000000000000f, -1.00000000000000000000f, -1.00000000000000000000f, 0.00000000000000000000f, -1.00000000000000000000f, -1.00000000000000000000f, 1.00000000000000000000f, -1.00000000000000000000f, -1.00000000000000000000f, -1.00000000000000000000f, -1.00000000000000000000f, -1.00000000000000000000f, 1.00000000000000000000f, -1.00000000000000000000f, 1.00000000000000000000f, 1.00000000000000000000f, 1.00000000000000000000f, -1.00000000000000000000f, 1.00000000000000000000f, -1.00000000000000000000f, 1.00000000000000000000f, -1.00000000000000000000f, 1.00000000000000000000f, 1.00000000000000000000f, -1.00000000000000000000f},
  {0.00000000000000000000f, 1.00000000000000000000f, 1.00000000000000000000f, 0.00000000000000000000f, -1.00000000000000000000f, 0.00000000000000000000f, 1.00000000000000000000f, 1.00000000000000000000f, -1.00000000000000000000f, 1.00000000000000000000f, -1.00000000000000000000f, 0.00000000000000000000f, 1.00000000000000000000f, 0.00000000000000000000f, -1.00000000000000000000f, -1.00000000000000000000f, -1.00000000000000000000f, -1.00000000000000000000f, 0.00000000000000000000f, 0.00000000000000000000f, 1.00000000000000000000f, -1.00000000000000000000f, -1.00000000000000000000f, 0.00000000000000000000f, 0.00000000000000000000f, 1.00000000000000000000f, 1.00000000000000000000f, 1.00000000000000000000f, 0.00000000000000000000f, -1.00000000000000000000f, 1.00000000000000000000f, 1.00000000000000000000f, -1.00000000000000000000f, 1.00000000000000000000f, 0.00000000000000000000f, 0.00000000000000000000f, 1.00000000000000000000f, -1.00000000000000000000f, -1.00000000000000000000f, 1.00000000000000000000f, 1.00000000000000000000f, -1.00000000000000000000f, -1.00000000000000000000f, -1.00000000000000000000f, -1.00000000000000000000f, 0.00000000000000000000f, 0.00000000000000000000f, -1.00000000000000000000f, 0.00000000000000000000f, -1.00000000000000000000f, 1.00000000000000000000f, 0.00000000000000000000f, -1.00000000000000000000f, -1.00000000000000000000f, 1.00000000000000000000f, 1.00000000000000000000f, -1.00000000000000000000f, 0.00000000000000000000f, -1.00000000000000000000f, 0.00000000000000000000f, 1.00000000000000000000f, 1.00000000000000000000f, 1.00000000000000000000f, -1.00000000000000000000f, -1.00000000000000000000f, 0.00000000000000000000f, 1.00000000000000000000f, -1.00000000000000000000f, -1.00000000000000000000f, 1.00000000000000000000f, 0.00000000000000000000f, -1.00000000000000000000f, 1.00000000000000000000f, -1.00000000000000000000f, 0.00000000000000000000f, 1.00000000000000000000f, 0.00000000000000000000f, 1.00000000000000000000f, -1.00000000000000000000f, -1.00000000000000000000f, 1.00000000000000000000f, 1.00000000000000000000f, 1.00000000000000000000f, -1.00000000000000000000f, 1.00000000000000000000f, 0.00000000000000000000f, 0.00000000000000000000f, -1.00000000000000000000f, 1.00000000000000000000f, -1.00000000000000000000f, 0.00000000000000000000f, -1.00000000000000000000f, -1.00000000000000000000f, 1.00000000000000000000f, 0.00000000000000000000f, -1.00000000000000000000f},
  {1.00000000000000000000f, 0.00000000000000000000f, 0.00000000000000000000f, 1.00000000000000000000f, 0.00000000000000000000f, 0.00000000000000000000f, 0.00000000000000000000f, 0.00000000000000000000f, 1.00000000000000000000f, 0.00000000000000000000f, 0.00000000000000000000f, 0.00000000000000000000f, 0.00000000000000000000f, 0.00000000000000000000f, 0.00000000000000000000f, 0.00000000000000000000f, 0.00000000000000000000f, 0.00000000000000000000f, -1.00000000000000000000f, 0.00000000000000000000f, 0.00000000000000000000f, 0.00000000000000000000f, 0.00000000000000000000f, 0.00000000000000000000f, 0.00000000000000000000f, 0.00000000000000000000f, 0.00000000000000000000f, 0.00000000000000000000f, 0.00000000000000000000f, -1.00000000000000000000f, 0.00000000000000000000f, 0.00000000000000000000f, 0.00000000000000000000f, 0.00000000000000000000f, 0.00000000000000000000f, 0.00000000000000000000f, 1.00000000000000000000f, 0.00000000000000000000f, -1.00000000000000000000f, 0.00000000000000000000f, 0.00000000000000000000f, 0.00000000000000000000f, -1.00000000000000000000f, 0.00000000000000000000f, 1.00000000000000000000f, 0.00000000000000000000f, -1.00000000000000000000f, 1.00000000000000000000f, 0.00000000000000000000f, 0.00000000000000000000f, 1.00000000000000000000f, 0.00000000000000000000f, 0.00000000000000000000f, -1.00000000000000000000f, 0.00000000000000000000f, 0.00000000000000000000f, 0.00000000000000000000f, -1.00000000000000000000f, 0.00000000000000000000f, 0.00000000000000000000f, 0.00000000000000000000f, 0.00000000000000000000f, 0.00000000000000000000f, 0.00000000000000000000f, 1.00000000000000000000f, 0.00000000000000000000f, 0.00000000000000000000f, 1.00000000000000000000f, 0.00000000000000000000f, 0.00000000000000000000f, 0.00000000000000000000f, 0.00000000000000000000f, 0.00000000000000000000f, -1.00000000000000000000f, 0.00000000000000000000f, 0.00000000000000000000f, 0.00000000000000000000f, 0.00000000000000000000f, 0.00000000000000000000f, -1.00000000000000000000f, 0.00000000000000000000f, 1.00000000000000000000f, -1.00000000000000000000f, 0.00000000000000000000f, -1.00000000000000000000f, 0.00000000000000000000f, 0.00000000000000000000f, 1.00000000000000000000f, 0.00000000000000000000f, 0.00000000000000000000f, -1.00000000000000000000f, -1.00000000000000000000f, 0.00000000000000000000f, -1.00000000000000000000f, 0.00000000000000000000f, 0.00000000000000000000f},
  {-1.00000000000000000000f, -1.00000000000000000000f, -1.00000000000000000000f, 1.00000000000000000000f, -1.00000000000000000000f, -1.00000000000000000000f, -1.00000000000000000000f, 1.00000000000000000000f, 0.00000000000000000000f, -1.00000000000000000000f, 1.00000000000000000000f, 1.00000000000000000000f, -1.00000000000000000000f, -1.00000000000000000000f, -1.00000000000000000000f, -1.00000000000000000000f, 1.00000000000000000000f, 1.00000000000000000000f, 1.00000000000000000000f, -1.00000000000000000000f, 1.00000000000000000000f, -1.00000000000000000000f, -1.00000000000000000000f, 1.00000000000000000000f, 1.00000000000000000000f, 1.00000000000000000000f, 1.00000000000000000000f, 1.00000000000000000000f, -1.00000000000000000000f, 1.00000000000000000000f, -1.00000000000000000000f, -1.00000000000000000000f, 1.00000000000000000000f, 1.00000000000000000000f, 1.00000000000000000000f, -1.00000000000000000000f, -1.00000000000000000000f, -1.00000000000000000000f, -1.00000000000000000000f, -1.00000000000000000000f, -1.00000000000000000000f, 1.00000000000000000000f, -1.00000000000000000000f, -1.00000000000000000000f, 1.00000000000000000000f, -1.00000000000000000000f, -1.00000000000000000000f, 1.00000000000000000000f, 1.00000000000000000000f, -1.00000000000000000000f, 1.00000000000000000000f, -1.00000000000000000000f, 1.00000000000000000000f, 1.00000000000000000000f, 0.00000000000000000000f, -1.00000000000000000000f, -1.00000000000000000000f, -1.00000000000000000000f, -1.00000000000000000000f, 1.00000000000000000000f, 1.00000000000000000000f, 1.00000000000000000000f, 1.00000000000000000000f, -1.00000000000000000000f, -1.00000000000000000000f, -1.00000000000000000000f, 1.00000000000000000000f, 1.00000000000000000000f, -1.00000000000000000000f, -1.00000000000000000000f, 1.00000000000000000000f, 1.00000000000000000000f, -1.00000000000000000000f, -1.00000000000000000000f, 1.00000000000000000000f, -1.00000000000000000000f, 1.00000000000000000000f, -1.00000000000000000000f, -1.00000000000000000000f, 1.00000000000000000000f, -1.00000000000000000000f, -1.00000000000000000000f, -1.00000000000000000000f, -1.00000000000000000000f, -1.00000000000000000000f, 1.00000000000000000000f, -1.00000000000000000000f, 1.00000000000000000000f, 1.00000000000000000000f, -1.00000000000000000000f, 1.00000000000000000000f, 1.00000000000000000000f, -1.00000000000000000000f, -1.00000000000000000000f, 1.00000000000000000000f, -1.00000000000000000000f},
  {0.00000000000000000000f, 1.00000000000000000000f, 0.00000000000000000000f, 1.00000000000000000000f, 1.00000000000000000000f, -1.00000000000000000000f, 1.00000000000000000000f, 1.00000000000000000000f, -1.00000000000000000000f, 0.00000000000000000000f, -1.00000000000000000000f, 0.00000000000000000000f, -1.00000000000000000000f, 1.00000000000000000000f, 1.00000000000000000000f, 0.00000000000000000000f, 0.00000000000000000000f, 1.00000000000000000000f, -1.00000000000000000000f, 0.00000000000000000000f, -1.00000000000000000000f, 1.00000000000000000000f, 0.00000000000000000000f, -1.00000000000000000000f, -1.00000000000000000000f, -1.00000000000000000000f, -1.00000000000000000000f, 1.00000000000000000000f, -1.00000000000000000000f, -1.00000000000000000000f, 1.00000000000000000000f, -1.00000000000000000000f, 1.00000000000000000000f, 1.00000000000000000000f, -1.00000000000000000000f, 1.00000000000000000000f, -1.00000000000000000000f, 0.00000000000000000000f, 1.00000000000000000000f, 1.00000000000000000000f, 0.00000000000000000000f, -1.00000000000000000000f, 0.00000000000000000000f, 1.00000000000000000000f, 1.00000000000000000000f, 1.00000000000000000000f, -1.00000000000000000000f, 0.00000000000000000000f, 1.00000000000000000000f, 1.00000000000000000000f, -1.00000000000000000000f, 1.00000000000000000000f, 0.00000000000000000000f, 0.00000000000000000000f, -1.00000000000000000000f, -1.00000000000000000000f, 0.00000000000000000000f, 1.00000000000000000000f, -1.00000000000000000000f, 1.00000000000000000000f, 1.00000000000000000000f, 1.00000000000000000000f, 1.00000000000000000000f, 1.00000000000000000000f, 0.00000000000000000000f, 0.00000000000000000000f, 1.00000000000000000000f, 0.00000000000000000000f, -1.00000000000000000000f, 1.00000000000000000000f, -1.00000000000000000000f, 0.00000000000000000000f, 0.00000000000000000000f, -1.00000000000000000000f, 1.00000000000000000000f, -1.00000000000000000000f, -1.00000000000000000000f, 1.00000000000000000000f, 1.00000000000000000000f, 1.00000000000000000000f, -1.00000000000000000000f, 1.00000000000000000000f, 1.00000000000000000000f, -1.00000000000000000000f, -1.00000000000000000000f, 1.00000000000000000000f, -1.00000000000000000000f, -1.00000000000000000000f, 1.00000000000000000000f, 1.00000000000000000000f, 0.00000000000000000000f, 1.00000000000000000000f, -1.00000000000000000000f, -1.00000000000000000000f, -1.00000000000000000000f, -1.00000000000000000000f},
  {0.00000000000000000000f, 0.00000000000000000000f, -1.00000000000000000000f, -1.00000000000000000000f, -1.00000000000000000000f, 1.00000000000000000000f, 0.00000000000000000000f, -1.00000000000000000000f, 1.00000000000000000000f, 1.00000000000000000000f, -1.00000000000000000000f, 0.00000000000000000000f, 1.00000000000000000000f, 0.00000000000000000000f, 0.00000000000000000000f, 1.00000000000000000000f, 1.00000000000000000000f, 1.00000000000000000000f, 0.00000000000000000000f, 1.00000000000000000000f, 1.00000000000000000000f, 0.00000000000000000000f, -1.00000000000000000000f, 0.00000000000000000000f, 0.00000000000000000000f, 1.00000000000000000000f, 0.00000000000000000000f, -1.00000000000000000000f, 1.00000000000000000000f, -1.00000000000000000000f, 0.00000000000000000000f, 1.00000000000000000000f, -1.00000000000000000000f, 0.00000000000000000000f, -1.00000000000000000000f, 1.00000000000000000000f, 1.00000000000000000000f, 0.00000000000000000000f, 1.00000000000000000000f, 1.00000000000000000000f, 1.00000000000000000000f, 0.00000000000000000000f, 1.00000000000000000000f, 0.00000000000000000000f, -1.00000000000000000000f, -1.00000000000000000000f, -1.00000000000000000000f, 0.00000000000000000000f, 0.00000000000000000000f, 1.00000000000000000000f, -1.00000000000000000000f, 0.00000000000000000000f, 0.00000000000000000000f, 0.00000000000000000000f, 0.00000000000000000000f, 1.00000000000000000000f, -1.00000000000000000000f, 0.00000000000000000000f, 1.00000000000000000000f, -1.00000000000000000000f, 1.00000000000000000000f, 1.00000000000000000000f, -1.00000000000000000000f, -1.00000000000000000000f, -1.00000000000000000000f, 0.00000000000000000000f, 1.00000000000000000000f, 0.00000000000000000000f, -1.00000000000000000000f, -1.00000000000000000000f, 0.00000000000000000000f, -1.00000000000000000000f, 1.00000000000000000000f, 0.00000000000000000000f, -1.00000000000000000000f, -1.00000000000000000000f, 1.00000000000000000000f, 1.00000000000000000000f, -1.00000000000000000000f, 1.00000000000000000000f, -1.00000000000000000000f, -1.00000000000000000000f, -1.00000000000000000000f, 1.00000000000000000000f, -1.00000000000000000000f, -1.00000000000000000000f, -1.00000000000000000000f, 1.00000000000000000000f, 0.00000000000000000000f, -1.00000000000000000000f, -1.00000000000000000000f, -1.00000000000000000000f, 1.00000000000000000000f, -1.00000000000000000000f, -1.00000000000000000000f, -1.00000000000000000000f},
  {0.00000000000000000000f, 0.00000000000000000000f, 0.00000000000000000000f, 0.00000000000000000000f, 0.00000000000000000000f, 0.00000000000000000000f, 0.00000000000000000000f, 0.00000000000000000000f, 0.00000000000000000000f, 0.00000000000000000000f, 0.00000000000000000000f, 0.00000000000000000000f, 0.00000000000000000000f, 0.00000000000000000000f, 0.00000000000000000000f, 1.00000000000000000000f, 0.00000000000000000000f, 0.00000000000000000000f, 0.00000000000000000000f, 0.00000000000000000000f, 0.00000000000000000000f, 0.00000000000000000000f, 0.00000000000000000000f, 0.00000000000000000000f, 0.00000000000000000000f, 0.00000000000000000000f, 0.00000000000000000000f, 0.00000000000000000000f, 0.00000000000000000000f, 0.00000000000000000000f, 0.00000000000000000000f, 0.00000000000000000000f, 0.00000000000000000000f, 0.00000000000000000000f, 0.00000000000000000000f, 0.00000000000000000000f, 0.00000000000000000000f, 0.00000000000000000000f, 0.00000000000000000000f, 0.00000000000000000000f, 0.00000000000000000000f, 0.00000000000000000000f, 0.00000000000000000000f, 0.00000000000000000000f, 0.00000000000000000000f, 0.00000000000000000000f, 0.00000000000000000000f, 0.00000000000000000000f, 0.00000000000000000000f, 0.00000000000000000000f, 0.00000000000000000000f, 0.00000000000000000000f, 0.00000000000000000000f, 0.00000000000000000000f, 0.00000000000000000000f, 0.00000000000000000000f, 0.00000000000000000000f, 0.00000000000000000000f, -1.00000000000000000000f, 0.00000000000000000000f, 0.00000000000000000000f, 0.00000000000000000000f, 0.00000000000000000000f, 0.00000000000000000000f, 0.00000000000000000000f, 0.00000000000000000000f, -1.00000000000000000000f, 1.00000000000000000000f, 0.00000000000000000000f, 0.00000000000000000000f, -1.00000000000000000000f, 0.00000000000000000000f, 1.00000000000000000000f, 0.00000000000000000000f, 0.00000000000000000000f, 0.00000000000000000000f, 0.00000000000000000000f, 0.00000000000000000000f, 0.00000000000000000000f, 0.00000000000000000000f, 0.00000000000000000000f, 0.00000000000000000000f, 0.00000000000000000000f, 0.00000000000000000000f, 0.00000000000000000000f, 0.00000000000000000000f, 0.00000000000000000000f, -1.00000000000000000000f, 0.00000000000000000000f, 0.00000000000000000000f, 0.00000000000000000000f, 0.00000000000000000000f, 0.00000000000000000000f, 0.00000000000000000000f, 0.00000000000000000000f, 0.00000000000000000000f},
  {0.00000000000000000000f, 0.00000000000000000000f, 1.00000000000000000000f, -1.00000000000000000000f, 0.00000000000000000000f, 1.00000000000000000000f, -1.00000000000000000000f, 1.00000000000000000000f, -1.00000000000000000000f, 0.00000000000000000000f, 1.00000000000000000000f, -1.00000000000000000000f, -1.00000000000000000000f, 0.00000000000000000000f, 1.00000000000000000000f, -1.00000000000000000000f, 0.00000000000000000000f, 0.00000000000000000000f, 1.00000000000000000000f, -1.00000000000000000000f, 1.00000000000000000000f, 0.00000000000000000000f, 0.00000000000000000000f, -1.00000000000000000000f, -1.00000000000000000000f, -1.00000000000000000000f, -1.00000000000000000000f, 0.00000000000000000000f, -1.00000000000000000000f, -1.00000000000000000000f, 1.00000000000000000000f, 0.00000000000000000000f, 0.00000000000000000000f, -1.00000000000000000000f, 0.00000000000000000000f, 1.00000000000000000000f, 0.00000000000000000000f, -1.00000000000000000000f, -1.00000000000000000000f, 1.00000000000000000000f, 1.00000000000000000000f, 1.00000000000000000000f, 0.00000000000000000000f, 1.00000000000000000000f, -1.00000000000000000000f, 0.00000000000000000000f, 0.00000000000000000000f, 0.00000000000000000000f, 1.00000000000000000000f, 0.00000000000000000000f, 0.00000000000000000000f, 0.00000000000000000000f, 1.00000000000000000000f, -1.00000000000000000000f, -1.00000000000000000000f, -1.00000000000000000000f, 1.00000000000000000000f, -1.00000000000000000000f, 1.00000000000000000000f, 0.00000000000000000000f, 0.00000000000000000000f, 1.00000000000000000000f, 1.00000000000000000000f, -1.00000000000000000000f, -1.00000000000000000000f, 0.00000000000000000000f, 0.00000000000000000000f, -1.00000000000000000000f, 0.00000000000000000000f, 1.00000000000000000000f, 0.00000000000000000000f, -1.00000000000000000000f, -1.00000000000000000000f, -1.00000000000000000000f, -1.00000000000000000000f, 0.00000000000000000000f, -1.00000000000000000000f, 1.00000000000000000000f, 0.00000000000000000000f, 1.00000000000000000000f, -1.00000000000000000000f, -1.00000000000000000000f, -1.00000000000000000000f, 0.00000000000000000000f, -1.00000000000000000000f, 1.00000000000000000000f, 1.00000000000000000000f, 0.00000000000000000000f, 0.00000000000000000000f, 1.00000000000000000000f, 1.00000000000000000000f, 1.00000000000000000000f, -1.00000000000000000000f, 1.00000000000000000000f, 1.00000000000000000000f, 0.00000000000000000000f},
  {0.00000000000000000000f, 0.00000000000000000000f, 0.00000000000000000000f, 0.00000000000000000000f, -1.00000000000000000000f, 0.00000000000000000000f, 0.00000000000000000000f, 0.00000000000000000000f, 0.00000000000000000000f, 0.00000000000000000000f, 0.00000000000000000000f, 0.00000000000000000000f, 0.00000000000000000000f, 0.00000000000000000000f, 1.00000000000000000000f, 0.00000000000000000000f, 0.00000000000000000000f, 0.00000000000000000000f, 0.00000000000000000000f, 0.00000000000000000000f, 0.00000000000000000000f, 0.00000000000000000000f, 0.00000000000000000000f, 0.00000000000000000000f, 0.00000000000000000000f, 0.00000000000000000000f, 0.00000000000000000000f, 0.00000000000000000000f, 0.00000000000000000000f, 0.00000000000000000000f, 0.00000000000000000000f, 0.00000000000000000000f, 0.00000000000000000000f, 0.00000000000000000000f, 0.00000000000000000000f, 0.00000000000000000000f, 0.00000000000000000000f, 0.00000000000000000000f, 0.00000000000000000000f, 0.00000000000000000000f, 0.00000000000000000000f, 0.00000000000000000000f, 0.00000000000000000000f, 0.00000000000000000000f, 0.00000000000000000000f, 0.00000000000000000000f, 0.00000000000000000000f, 0.00000000000000000000f, 0.00000000000000000000f, 0.00000000000000000000f, 0.00000000000000000000f, 0.00000000000000000000f, 1.00000000000000000000f, 0.00000000000000000000f, 0.00000000000000000000f, 0.00000000000000000000f, 0.00000000000000000000f, 0.00000000000000000000f, 0.00000000000000000000f, 0.00000000000000000000f, 0.00000000000000000000f, 0.00000000000000000000f, 0.00000000000000000000f, 0.00000000000000000000f, 0.00000000000000000000f, 0.00000000000000000000f, 0.00000000000000000000f, 0.00000000000000000000f, 0.00000000000000000000f, 0.00000000000000000000f, 0.00000000000000000000f, -1.00000000000000000000f, 0.00000000000000000000f, 0.00000000000000000000f, 0.00000000000000000000f, 0.00000000000000000000f, 0.00000000000000000000f, 0.00000000000000000000f, 0.00000000000000000000f, 0.00000000000000000000f, 0.00000000000000000000f, -1.00000000000000000000f, 0.00000000000000000000f, 0.00000000000000000000f, 0.00000000000000000000f, 0.00000000000000000000f, 0.00000000000000000000f, 0.00000000000000000000f, -1.00000000000000000000f, 0.00000000000000000000f, 0.00000000000000000000f, 0.00000000000000000000f, 0.00000000000000000000f, 0.00000000000000000000f, 0.00000000000000000000f, 0.00000000000000000000f},
  {0.00000000000000000000f, -1.00000000000000000000f, 0.00000000000000000000f, -1.00000000000000000000f, 1.00000000000000000000f, -1.00000000000000000000f, 1.00000000000000000000f, -1.00000000000000000000f, -1.00000000000000000000f, -1.00000000000000000000f, 1.00000000000000000000f, 0.00000000000000000000f, 0.00000000000000000000f, 1.00000000000000000000f, 1.00000000000000000000f, -1.00000000000000000000f, -1.00000000000000000000f, 1.00000000000000000000f, 0.00000000000000000000f, 1.00000000000000000000f, 1.00000000000000000000f, 0.00000000000000000000f, 1.00000000000000000000f, 1.00000000000000000000f, 0.00000000000000000000f, 1.00000000000000000000f, 0.00000000000000000000f, 1.00000000000000000000f, 1.00000000000000000000f, 1.00000000000000000000f, 0.00000000000000000000f, 1.00000000000000000000f, -1.00000000000000000000f, 1.00000000000000000000f, 1.00000000000000000000f, 1.00000000000000000000f, 0.00000000000000000000f, -1.00000000000000000000f, -1.00000000000000000000f, 1.00000000000000000000f, -1.00000000000000000000f, 0.00000000000000000000f, -1.00000000000000000000f, -1.00000000000000000000f, -1.00000000000000000000f, 0.00000000000000000000f, 0.00000000000000000000f, -1.00000000000000000000f, -1.00000000000000000000f, -1.00000000000000000000f, 1.00000000000000000000f, 1.00000000000000000000f, -1.00000000000000000000f, 1.00000000000000000000f, 1.00000000000000000000f, 1.00000000000000000000f, 0.00000000000000000000f, -1.00000000000000000000f, 1.00000000000000000000f, 0.00000000000000000000f, -1.00000000000000000000f, 1.00000000000000000000f, 1.00000000000000000000f, 1.00000000000000000000f, 0.00000000000000000000f, 1.00000000000000000000f, -1.00000000000000000000f, -1.00000000000000000000f, 1.00000000000000000000f, 1.00000000000000000000f, 1.00000000000000000000f, -1.00000000000000000000f, -1.00000000000000000000f, 0.00000000000000000000f, -1.00000000000000000000f, -1.00000000000000000000f, 1.00000000000000000000f, 1.00000000000000000000f, 1.00000000000000000000f, 0.00000000000000000000f, -1.00000000000000000000f, 0.00000000000000000000f, 1.00000000000000000000f, -1.00000000000000000000f, 0.00000000000000000000f, -1.00000000000000000000f, 1.00000000000000000000f, 1.00000000000000000000f, 1.00000000000000000000f, -1.00000000000000000000f, 1.00000000000000000000f, 1.00000000000000000000f, 1.00000000000000000000f, 1.00000000000000000000f, 1.00000000000000000000f, 0.00000000000000000000f},
  {-1.00000000000000000000f, 0.00000000000000000000f, -1.00000000000000000000f, -1.00000000000000000000f, 1.00000000000000000000f, -1.00000000000000000000f, -1.00000000000000000000f, 1.00000000000000000000f, 1.00000000000000000000f, -1.00000000000000000000f, 1.00000000000000000000f, -1.00000000000000000000f, -1.00000000000000000000f, 0.00000000000000000000f, 1.00000000000000000000f, -1.00000000000000000000f, -1.00000000000000000000f, 1.00000000000000000000f, 0.00000000000000000000f, -1.00000000000000000000f, 0.00000000000000000000f, -1.00000000000000000000f, 1.00000000000000000000f, -1.00000000000000000000f, 1.00000000000000000000f, 1.00000000000000000000f, 0.00000000000000000000f, -1.00000000000000000000f, -1.00000000000000000000f, 1.00000000000000000000f, 1.00000000000000000000f, -1.00000000000000000000f, 1.00000000000000000000f, -1.00000000000000000000f, -1.00000000000000000000f, -1.00000000000000000000f, 1.00000000000000000000f, 1.00000000000000000000f, -1.00000000000000000000f, 1.00000000000000000000f, 1.00000000000000000000f, 1.00000000000000000000f, -1.00000000000000000000f, 0.00000000000000000000f, 1.00000000000000000000f, -1.00000000000000000000f, 0.00000000000000000000f, 1.00000000000000000000f, 1.00000000000000000000f, 1.00000000000000000000f, -1.00000000000000000000f, -1.00000000000000000000f, 1.00000000000000000000f, -1.00000000000000000000f, 0.00000000000000000000f, 1.00000000000000000000f, 1.00000000000000000000f, 1.00000000000000000000f, -1.00000000000000000000f, -1.00000000000000000000f, -1.00000000000000000000f, -1.00000000000000000000f, 1.00000000000000000000f, -1.00000000000000000000f, 0.00000000000000000000f, -1.00000000000000000000f, 1.00000000000000000000f, -1.00000000000000000000f, 1.00000000000000000000f, -1.00000000000000000000f, -1.00000000000000000000f, -1.00000000000000000000f, -1.00000000000000000000f, 1.00000000000000000000f, 1.00000000000000000000f, -1.00000000000000000000f, 1.00000000000000000000f, 1.00000000000000000000f, 1.00000000000000000000f, 0.00000000000000000000f, 1.00000000000000000000f, 1.00000000000000000000f, 1.00000000000000000000f, 1.00000000000000000000f, 0.00000000000000000000f, -1.00000000000000000000f, -1.00000000000000000000f, -1.00000000000000000000f, 1.00000000000000000000f, 1.00000000000000000000f, 0.00000000000000000000f, -1.00000000000000000000f, -1.00000000000000000000f, 1.00000000000000000000f, 0.00000000000000000000f, 1.00000000000000000000f},
  {1.00000000000000000000f, -1.00000000000000000000f, 0.00000000000000000000f, 0.00000000000000000000f, -1.00000000000000000000f, 1.00000000000000000000f, -1.00000000000000000000f, 0.00000000000000000000f, -1.00000000000000000000f, 0.00000000000000000000f, 1.00000000000000000000f, -1.00000000000000000000f, -1.00000000000000000000f, 0.00000000000000000000f, 0.00000000000000000000f, 0.00000000000000000000f, 0.00000000000000000000f, 1.00000000000000000000f, 1.00000000000000000000f, 0.00000000000000000000f, 1.00000000000000000000f, -1.00000000000000000000f, 1.00000000000000000000f, 0.00000000000000000000f, 1.00000000000000000000f, 1.00000000000000000000f, -1.00000000000000000000f, 1.00000000000000000000f, 1.00000000000000000000f, 1.00000000000000000000f, 0.00000000000000000000f, -1.00000000000000000000f, -1.00000000000000000000f, -1.00000000000000000000f, 0.00000000000000000000f, -1.00000000000000000000f, -1.00000000000000000000f, -1.00000000000000000000f, 0.00000000000000000000f, 1.00000000000000000000f, 0.00000000000000000000f, 1.00000000000000000000f, 1.00000000000000000000f, 0.00000000000000000000f, -1.00000000000000000000f, 0.00000000000000000000f, -1.00000000000000000000f, 0.00000000000000000000f, 0.00000000000000000000f, 1.00000000000000000000f, 0.00000000000000000000f, 1.00000000000000000000f, 0.00000000000000000000f, -1.00000000000000000000f, 0.00000000000000000000f, -1.00000000000000000000f, -1.00000000000000000000f, 1.00000000000000000000f, -1.00000000000000000000f, 0.00000000000000000000f, 0.00000000000000000000f, 1.00000000000000000000f, 0.00000000000000000000f, -1.00000000000000000000f, 0.00000000000000000000f, 0.00000000000000000000f, -1.00000000000000000000f, 1.00000000000000000000f, 0.00000000000000000000f, 1.00000000000000000000f, 1.00000000000000000000f, 0.00000000000000000000f, 0.00000000000000000000f, 0.00000000000000000000f, 1.00000000000000000000f, 0.00000000000000000000f, 1.00000000000000000000f, -1.00000000000000000000f, 1.00000000000000000000f, 0.00000000000000000000f, 1.00000000000000000000f, 0.00000000000000000000f, -1.00000000000000000000f, 1.00000000000000000000f, -1.00000000000000000000f, 0.00000000000000000000f, 0.00000000000000000000f, -1.00000000000000000000f, -1.00000000000000000000f, -1.00000000000000000000f, 1.00000000000000000000f, 0.00000000000000000000f, 0.00000000000000000000f, 0.00000000000000000000f, 1.00000000000000000000f, 0.00000000000000000000f},
  {1.00000000000000000000f, 1.00000000000000000000f, -1.00000000000000000000f, 1.00000000000000000000f, 1.00000000000000000000f, 0.00000000000000000000f, -1.00000000000000000000f, 1.00000000000000000000f, 0.00000000000000000000f, -1.00000000000000000000f, -1.00000000000000000000f, 1.00000000000000000000f, -1.00000000000000000000f, 1.00000000000000000000f, 0.00000000000000000000f, 1.00000000000000000000f, 0.00000000000000000000f, -1.00000000000000000000f, 1.00000000000000000000f, 1.00000000000000000000f, 0.00000000000000000000f, 1.00000000000000000000f, 0.00000000000000000000f, 0.00000000000000000000f, 0.00000000000000000000f, -1.00000000000000000000f, 0.00000000000000000000f, 0.00000000000000000000f, 1.00000000000000000000f, 1.00000000000000000000f, 0.00000000000000000000f, 1.00000000000000000000f, 1.00000000000000000000f, -1.00000000000000000000f, -1.00000000000000000000f, -1.00000000000000000000f, 1.00000000000000000000f, 0.00000000000000000000f, 0.00000000000000000000f, -1.00000000000000000000f, 1.00000000000000000000f, 0.00000000000000000000f, -1.00000000000000000000f, -1.00000000000000000000f, -1.00000000000000000000f, -1.00000000000000000000f, 1.00000000000000000000f, 1.00000000000000000000f, 1.00000000000000000000f, 1.00000000000000000000f, -1.00000000000000000000f, 1.00000000000000000000f, 1.00000000000000000000f, 0.00000000000000000000f, 1.00000000000000000000f, -1.00000000000000000000f, 0.00000000000000000000f, -1.00000000000000000000f, -1.00000000000000000000f, -1.00000000000000000000f, 1.00000000000000000000f, -1.00000000000000000000f, 1.00000000000000000000f, -1.00000000000000000000f, -1.00000000000000000000f, 0.00000000000000000000f, -1.00000000000000000000f, -1.00000000000000000000f, 1.00000000000000000000f, 1.00000000000000000000f, -1.00000000000000000000f, 1.00000000000000000000f, 0.00000000000000000000f, 0.00000000000000000000f, 0.00000000000000000000f, 0.00000000000000000000f, -1.00000000000000000000f, 1.00000000000000000000f, -1.00000000000000000000f, 1.00000000000000000000f, 1.00000000000000000000f, 0.00000000000000000000f, 0.00000000000000000000f, 0.00000000000000000000f, 1.00000000000000000000f, 1.00000000000000000000f, 0.00000000000000000000f, 1.00000000000000000000f, 1.00000000000000000000f, 0.00000000000000000000f, 0.00000000000000000000f, 1.00000000000000000000f, 1.00000000000000000000f, 0.00000000000000000000f, -1.00000000000000000000f, 0.00000000000000000000f},
  {-1.00000000000000000000f, -1.00000000000000000000f, 1.00000000000000000000f, -1.00000000000000000000f, 0.00000000000000000000f, -1.00000000000000000000f, 0.00000000000000000000f, 1.00000000000000000000f, 1.00000000000000000000f, 0.00000000000000000000f, 0.00000000000000000000f, -1.00000000000000000000f, 1.00000000000000000000f, 1.00000000000000000000f, -1.00000000000000000000f, 1.00000000000000000000f, -1.00000000000000000000f, -1.00000000000000000000f, -1.00000000000000000000f, 0.00000000000000000000f, -1.00000000000000000000f, 1.00000000000000000000f, 0.00000000000000000000f, -1.00000000000000000000f, 1.00000000000000000000f, 0.00000000000000000000f, 0.00000000000000000000f, -1.00000000000000000000f, -1.00000000000000000000f, 0.00000000000000000000f, 0.00000000000000000000f, 0.00000000000000000000f, 0.00000000000000000000f, 1.00000000000000000000f, 0.00000000000000000000f, 1.00000000000000000000f, 1.00000000000000000000f, 1.00000000000000000000f, 1.00000000000000000000f, 0.00000000000000000000f, 0.00000000000000000000f, -1.00000000000000000000f, 0.00000000000000000000f, 0.00000000000000000000f, 1.00000000000000000000f, -1.00000000000000000000f, 1.00000000000000000000f, -1.00000000000000000000f, 1.00000000000000000000f, 0.00000000000000000000f, 0.00000000000000000000f, -1.00000000000000000000f, 1.00000000000000000000f, 1.00000000000000000000f, 0.00000000000000000000f, -1.00000000000000000000f, 1.00000000000000000000f, 1.00000000000000000000f, 0.00000000000000000000f, 1.00000000000000000000f, -1.00000000000000000000f, 1.00000000000000000000f, 1.00000000000000000000f, 1.00000000000000000000f, -1.00000000000000000000f, -1.00000000000000000000f, -1.00000000000000000000f, 1.00000000000000000000f, 0.00000000000000000000f, 1.00000000000000000000f, 1.00000000000000000000f, -1.00000000000000000000f, 1.00000000000000000000f, 0.00000000000000000000f, -1.00000000000000000000f, 0.00000000000000000000f, -1.00000000000000000000f, 1.00000000000000000000f, 0.00000000000000000000f, 1.00000000000000000000f, -1.00000000000000000000f, 0.00000000000000000000f, 0.00000000000000000000f, 1.00000000000000000000f, 0.00000000000000000000f, 1.00000000000000000000f, 0.00000000000000000000f, -1.00000000000000000000f, -1.00000000000000000000f, 1.00000000000000000000f, 0.00000000000000000000f, 1.00000000000000000000f, -1.00000000000000000000f, 1.00000000000000000000f, -1.00000000000000000000f, -1.00000000000000000000f},
  {0.00000000000000000000f, 0.00000000000000000000f, -1.00000000000000000000f, 0.00000000000000000000f, 0.00000000000000000000f, 0.00000000000000000000f, 0.00000000000000000000f, 0.00000000000000000000f, 0.00000000000000000000f, 0.00000000000000000000f, 0.00000000000000000000f, 0.00000000000000000000f, 0.00000000000000000000f, -1.00000000000000000000f, 1.00000000000000000000f, 0.00000000000000000000f, 1.00000000000000000000f, 0.00000000000000000000f, 0.00000000000000000000f, 0.00000000000000000000f, 0.00000000000000000000f, 0.00000000000000000000f, 0.00000000000000000000f, 0.00000000000000000000f, 1.00000000000000000000f, 0.00000000000000000000f, 0.00000000000000000000f, 0.00000000000000000000f, 0.00000000000000000000f, 0.00000000000000000000f, 0.00000000000000000000f, 0.00000000000000000000f, 0.00000000000000000000f, 0.00000000000000000000f, 0.00000000000000000000f, 0.00000000000000000000f, 0.00000000000000000000f, 0.00000000000000000000f, 0.00000000000000000000f, 0.00000000000000000000f, 0.00000000000000000000f, 0.00000000000000000000f, -1.00000000000000000000f, 0.00000000000000000000f, 0.00000000000000000000f, 0.00000000000000000000f, 0.00000000000000000000f, 0.00000000000000000000f, 0.00000000000000000000f, 0.00000000000000000000f, 0.00000000000000000000f, 0.00000000000000000000f, 0.00000000000000000000f, 0.00000000000000000000f, 0.00000000000000000000f, 0.00000000000000000000f, 0.00000000000000000000f, 0.00000000000000000000f, -1.00000000000000000000f, 0.00000000000000000000f, 0.00000000000000000000f, 0.00000000000000000000f, 0.00000000000000000000f, 0.00000000000000000000f, 0.00000000000000000000f, 0.00000000000000000000f, 1.00000000000000000000f, -1.00000000000000000000f, -1.00000000000000000000f, 0.00000000000000000000f, 1.00000000000000000000f, 0.00000000000000000000f, 0.00000000000000000000f, -1.00000000000000000000f, 0.00000000000000000000f, 1.00000000000000000000f, 0.00000000000000000000f, -1.00000000000000000000f, -1.00000000000000000000f, 0.00000000000000000000f, 0.00000000000000000000f, 0.00000000000000000000f, 0.00000000000000000000f, 0.00000000000000000000f, 0.00000000000000000000f, 0.00000000000000000000f, 0.00000000000000000000f, 0.00000000000000000000f, 0.00000000000000000000f, 0.00000000000000000000f, 0.00000000000000000000f, -1.00000000000000000000f, -1.00000000000000000000f, -1.00000000000000000000f, 1.00000000000000000000f, 0.00000000000000000000f},
  {0.00000000000000000000f, -1.00000000000000000000f, 1.00000000000000000000f, 1.00000000000000000000f, 1.00000000000000000000f, 0.00000000000000000000f, -1.00000000000000000000f, 1.00000000000000000000f, 1.00000000000000000000f, 0.00000000000000000000f, -1.00000000000000000000f, 1.00000000000000000000f, -1.00000000000000000000f, -1.00000000000000000000f, 1.00000000000000000000f, 0.00000000000000000000f, 1.00000000000000000000f, 1.00000000000000000000f, -1.00000000000000000000f, -1.00000000000000000000f, -1.00000000000000000000f, 1.00000000000000000000f, -1.00000000000000000000f, 0.00000000000000000000f, 1.00000000000000000000f, -1.00000000000000000000f, -1.00000000000000000000f, 0.00000000000000000000f, 1.00000000000000000000f, 1.00000000000000000000f, -1.00000000000000000000f, -1.00000000000000000000f, 1.00000000000000000000f, 1.00000000000000000000f, -1.00000000000000000000f, -1.00000000000000000000f, 0.00000000000000000000f, 0.00000000000000000000f, 1.00000000000000000000f, 1.00000000000000000000f, 1.00000000000000000000f, 1.00000000000000000000f, -1.00000000000000000000f, -1.00000000000000000000f, 1.00000000000000000000f, -1.00000000000000000000f, -1.00000000000000000000f, -1.00000000000000000000f, -1.00000000000000000000f, -1.00000000000000000000f, 0.00000000000000000000f, 1.00000000000000000000f, 1.00000000000000000000f, 1.00000000000000000000f, 0.00000000000000000000f, -1.00000000000000000000f, -1.00000000000000000000f, 1.00000000000000000000f, -1.00000000000000000000f, -1.00000000000000000000f, 0.00000000000000000000f, -1.00000000000000000000f, 0.00000000000000000000f, 1.00000000000000000000f, -1.00000000000000000000f, 0.00000000000000000000f, 0.00000000000000000000f, 0.00000000000000000000f, 1.00000000000000000000f, -1.00000000000000000000f, 1.00000000000000000000f, 1.00000000000000000000f, -1.00000000000000000000f, 1.00000000000000000000f, 1.00000000000000000000f, 1.00000000000000000000f, -1.00000000000000000000f, -1.00000000000000000000f, 1.00000000000000000000f, 0.00000000000000000000f, -1.00000000000000000000f, -1.00000000000000000000f, -1.00000000000000000000f, -1.00000000000000000000f, 1.00000000000000000000f, -1.00000000000000000000f, 0.00000000000000000000f, -1.00000000000000000000f, 0.00000000000000000000f, 0.00000000000000000000f, -1.00000000000000000000f, -1.00000000000000000000f, 0.00000000000000000000f, 0.00000000000000000000f, -1.00000000000000000000f, 1.00000000000000000000f},
  {0.00000000000000000000f, 0.00000000000000000000f, 0.00000000000000000000f, 0.00000000000000000000f, 0.00000000000000000000f, 0.00000000000000000000f, -1.00000000000000000000f, 0.00000000000000000000f, 0.00000000000000000000f, 0.00000000000000000000f, 0.00000000000000000000f, 0.00000000000000000000f, 0.00000000000000000000f, 0.00000000000000000000f, 0.00000000000000000000f, 0.00000000000000000000f, 0.00000000000000000000f, 1.00000000000000000000f, 0.00000000000000000000f, 0.00000000000000000000f, 0.00000000000000000000f, 0.00000000000000000000f, 0.00000000000000000000f, 0.00000000000000000000f, 1.00000000000000000000f, 1.00000000000000000000f, 0.00000000000000000000f, 0.00000000000000000000f, 0.00000000000000000000f, -1.00000000000000000000f, 0.00000000000000000000f, 0.00000000000000000000f, 0.00000000000000000000f, 0.00000000000000000000f, 0.00000000000000000000f, 0.00000000000000000000f, 0.00000000000000000000f, 0.00000000000000000000f, -1.00000000000000000000f, 1.00000000000000000000f, 0.00000000000000000000f, 0.00000000000000000000f, -1.00000000000000000000f, 0.00000000000000000000f, 0.00000000000000000000f, 0.00000000000000000000f, -1.00000000000000000000f, 0.00000000000000000000f, 0.00000000000000000000f, 0.00000000000000000000f, 0.00000000000000000000f, 0.00000000000000000000f, 0.00000000000000000000f, 0.00000000000000000000f, 0.00000000000000000000f, 0.00000000000000000000f, 0.00000000000000000000f, 1.00000000000000000000f, 0.00000000000000000000f, 0.00000000000000000000f, -1.00000000000000000000f, 0.00000000000000000000f, 0.00000000000000000000f, 0.00000000000000000000f, 0.00000000000000000000f, 0.00000000000000000000f, 0.00000000000000000000f, 0.00000000000000000000f, 0.00000000000000000000f, 0.00000000000000000000f, 0.00000000000000000000f, 1.00000000000000000000f, 0.00000000000000000000f, 0.00000000000000000000f, 0.00000000000000000000f, 0.00000000000000000000f, 0.00000000000000000000f, 1.00000000000000000000f, 0.00000000000000000000f, 0.00000000000000000000f, 0.00000000000000000000f, 0.00000000000000000000f, 0.00000000000000000000f, 0.00000000000000000000f, 0.00000000000000000000f, 1.00000000000000000000f, 0.00000000000000000000f, 0.00000000000000000000f, 0.00000000000000000000f, 0.00000000000000000000f, 0.00000000000000000000f, -1.00000000000000000000f, 0.00000000000000000000f, 0.00000000000000000000f, 0.00000000000000000000f, 0.00000000000000000000f},
  {0.00000000000000000000f, 0.00000000000000000000f, 0.00000000000000000000f, 0.00000000000000000000f, -1.00000000000000000000f, -1.00000000000000000000f, 1.00000000000000000000f, 0.00000000000000000000f, -1.00000000000000000000f, -1.00000000000000000000f, 0.00000000000000000000f, 0.00000000000000000000f, 0.00000000000000000000f, 0.00000000000000000000f, 0.00000000000000000000f, 1.00000000000000000000f, 0.00000000000000000000f, -1.00000000000000000000f, 0.00000000000000000000f, 0.00000000000000000000f, 0.00000000000000000000f, 0.00000000000000000000f, -1.00000000000000000000f, -1.00000000000000000000f, 1.00000000000000000000f, 0.00000000000000000000f, 0.00000000000000000000f, 0.00000000000000000000f, 1.00000000000000000000f, 1.00000000000000000000f, 0.00000000000000000000f, 1.00000000000000000000f, 0.00000000000000000000f, 0.00000000000000000000f, 0.00000000000000000000f, 0.00000000000000000000f, 0.00000000000000000000f, 1.00000000000000000000f, 0.00000000000000000000f, 0.00000000000000000000f, 0.00000000000000000000f, 0.00000000000000000000f, 0.00000000000000000000f, 0.00000000000000000000f, 0.00000000000000000000f, -1.00000000000000000000f, 0.00000000000000000000f, 0.00000000000000000000f, 0.00000000000000000000f, 0.00000000000000000000f, 0.00000000000000000000f, 1.00000000000000000000f, 0.00000000000000000000f, 0.00000000000000000000f, 0.00000000000000000000f, -1.00000000000000000000f, 0.00000000000000000000f, 0.00000000000000000000f, 0.00000000000000000000f, 1.00000000000000000000f, 0.00000000000000000000f, 0.00000000000000000000f, 0.00000000000000000000f, 0.00000000000000000000f, 0.00000000000000000000f, 1.00000000000000000000f, 0.00000000000000000000f, -1.00000000000000000000f, 0.00000000000000000000f, 0.00000000000000000000f, 0.00000000000000000000f, 0.00000000000000000000f, 1.00000000000000000000f, 0.00000000000000000000f, 1.00000000000000000000f, 0.00000000000000000000f, 1.00000000000000000000f, 0.00000000000000000000f, 0.00000000000000000000f, 0.00000000000000000000f, 0.00000000000000000000f, -1.00000000000000000000f, 0.00000000000000000000f, 0.00000000000000000000f, 0.00000000000000000000f, -1.00000000000000000000f, -1.00000000000000000000f, 0.00000000000000000000f, 1.00000000000000000000f, 1.00000000000000000000f, -1.00000000000000000000f, 0.00000000000000000000f, 0.00000000000000000000f, 1.00000000000000000000f, 0.00000000000000000000f, 0.00000000000000000000f},
  {-1.00000000000000000000f, 1.00000000000000000000f, 0.00000000000000000000f, 0.00000000000000000000f, 1.00000000000000000000f, 0.00000000000000000000f, 0.00000000000000000000f, 0.00000000000000000000f, 0.00000000000000000000f, -1.00000000000000000000f, 0.00000000000000000000f, 0.00000000000000000000f, 0.00000000000000000000f, 0.00000000000000000000f, 0.00000000000000000000f, 0.00000000000000000000f, 0.00000000000000000000f, 1.00000000000000000000f, 0.00000000000000000000f, 0.00000000000000000000f, 1.00000000000000000000f, 0.00000000000000000000f, 0.00000000000000000000f, 1.00000000000000000000f, 0.00000000000000000000f, -1.00000000000000000000f, 0.00000000000000000000f, 0.00000000000000000000f, 0.00000000000000000000f, 1.00000000000000000000f, 0.00000000000000000000f, 1.00000000000000000000f, 0.00000000000000000000f, 0.00000000000000000000f, 0.00000000000000000000f, 0.00000000000000000000f, 0.00000000000000000000f, 0.00000000000000000000f, 0.00000000000000000000f, 0.00000000000000000000f, 0.00000000000000000000f, 0.00000000000000000000f, 1.00000000000000000000f, 0.00000000000000000000f, 0.00000000000000000000f, 0.00000000000000000000f, 0.00000000000000000000f, 0.00000000000000000000f, 0.00000000000000000000f, 0.00000000000000000000f, 0.00000000000000000000f, 0.00000000000000000000f, 0.00000000000000000000f, 0.00000000000000000000f, 0.00000000000000000000f, 0.00000000000000000000f, 0.00000000000000000000f, 0.00000000000000000000f, 0.00000000000000000000f, 0.00000000000000000000f, 0.00000000000000000000f, 0.00000000000000000000f, -1.00000000000000000000f, -1.00000000000000000000f, -1.00000000000000000000f, 0.00000000000000000000f, 0.00000000000000000000f, 0.00000000000000000000f, 0.00000000000000000000f, 0.00000000000000000000f, 0.00000000000000000000f, 0.00000000000000000000f, 0.00000000000000000000f, 0.00000000000000000000f, 0.00000000000000000000f, 0.00000000000000000000f, 0.00000000000000000000f, 0.00000000000000000000f, 0.00000000000000000000f, 0.00000000000000000000f, 0.00000000000000000000f, 0.00000000000000000000f, 0.00000000000000000000f, 0.00000000000000000000f, 0.00000000000000000000f, 0.00000000000000000000f, 0.00000000000000000000f, 0.00000000000000000000f, -1.00000000000000000000f, 0.00000000000000000000f, 0.00000000000000000000f, 0.00000000000000000000f, 0.00000000000000000000f, 0.00000000000000000000f, 0.00000000000000000000f, -1.00000000000000000000f},
  {0.00000000000000000000f, 1.00000000000000000000f, -1.00000000000000000000f, -1.00000000000000000000f, -1.00000000000000000000f, 0.00000000000000000000f, -1.00000000000000000000f, -1.00000000000000000000f, 1.00000000000000000000f, 1.00000000000000000000f, -1.00000000000000000000f, -1.00000000000000000000f, -1.00000000000000000000f, -1.00000000000000000000f, 1.00000000000000000000f, -1.00000000000000000000f, 1.00000000000000000000f, 1.00000000000000000000f, 1.00000000000000000000f, -1.00000000000000000000f, 1.00000000000000000000f, 1.00000000000000000000f, 1.00000000000000000000f, 1.00000000000000000000f, 0.00000000000000000000f, 1.00000000000000000000f, -1.00000000000000000000f, -1.00000000000000000000f, 1.00000000000000000000f, -1.00000000000000000000f, 0.00000000000000000000f, -1.00000000000000000000f, -1.00000000000000000000f, 1.00000000000000000000f, -1.00000000000000000000f, 1.00000000000000000000f, -1.00000000000000000000f, -1.00000000000000000000f, -1.00000000000000000000f, -1.00000000000000000000f, -1.00000000000000000000f, 0.00000000000000000000f, -1.00000000000000000000f, -1.00000000000000000000f, 1.00000000000000000000f, 1.00000000000000000000f, -1.00000000000000000000f, 0.00000000000000000000f, -1.00000000000000000000f, -1.00000000000000000000f, 1.00000000000000000000f, 0.00000000000000000000f, 1.00000000000000000000f, 1.00000000000000000000f, -1.00000000000000000000f, -1.00000000000000000000f, 1.00000000000000000000f, 1.00000000000000000000f, 0.00000000000000000000f, -1.00000000000000000000f, -1.00000000000000000000f, 1.00000000000000000000f, 1.00000000000000000000f, -1.00000000000000000000f, 1.00000000000000000000f, 0.00000000000000000000f, -1.00000000000000000000f, -1.00000000000000000000f, -1.00000000000000000000f, 1.00000000000000000000f, -1.00000000000000000000f, -1.00000000000000000000f, -1.00000000000000000000f, 1.00000000000000000000f, 1.00000000000000000000f, 0.00000000000000000000f, 1.00000000000000000000f, -1.00000000000000000000f, -1.00000000000000000000f, 1.00000000000000000000f, 1.00000000000000000000f, -1.00000000000000000000f, -1.00000000000000000000f, -1.00000000000000000000f, -1.00000000000000000000f, 1.00000000000000000000f, 1.00000000000000000000f, -1.00000000000000000000f, 1.00000000000000000000f, 1.00000000000000000000f, -1.00000000000000000000f, 1.00000000000000000000f, -1.00000000000000000000f, 1.00000000000000000000f, 0.00000000000000000000f, 1.00000000000000000000f},
  {0.00000000000000000000f, 0.00000000000000000000f, -1.00000000000000000000f, 1.00000000000000000000f, 0.00000000000000000000f, 0.00000000000000000000f, -1.00000000000000000000f, 0.00000000000000000000f, 0.00000000000000000000f, 1.00000000000000000000f, 0.00000000000000000000f, 0.00000000000000000000f, 0.00000000000000000000f, 0.00000000000000000000f, 0.00000000000000000000f, 0.00000000000000000000f, 0.00000000000000000000f, 0.00000000000000000000f, 0.00000000000000000000f, 0.00000000000000000000f, 0.00000000000000000000f, 0.00000000000000000000f, 0.00000000000000000000f, 0.00000000000000000000f, 1.00000000000000000000f, 0.00000000000000000000f, 0.00000000000000000000f, -1.00000000000000000000f, -1.00000000000000000000f, 0.00000000000000000000f, -1.00000000000000000000f, 0.00000000000000000000f, 0.00000000000000000000f, 0.00000000000000000000f, 0.00000000000000000000f, 0.00000000000000000000f, 0.00000000000000000000f, 0.00000000000000000000f, 0.00000000000000000000f, 0.00000000000000000000f, 0.00000000000000000000f, 1.00000000000000000000f, 0.00000000000000000000f, 0.00000000000000000000f, -1.00000000000000000000f, 0.00000000000000000000f, 0.00000000000000000000f, 0.00000000000000000000f, 0.00000000000000000000f, 0.00000000000000000000f, 0.00000000000000000000f, 0.00000000000000000000f, 0.00000000000000000000f, 0.00000000000000000000f, 1.00000000000000000000f, 0.00000000000000000000f, 0.00000000000000000000f, 0.00000000000000000000f, -1.00000000000000000000f, 0.00000000000000000000f, 0.00000000000000000000f, 1.00000000000000000000f, 1.00000000000000000000f, 0.00000000000000000000f, -1.00000000000000000000f, 1.00000000000000000000f, 1.00000000000000000000f, 1.00000000000000000000f, -1.00000000000000000000f, 1.00000000000000000000f, 0.00000000000000000000f, 0.00000000000000000000f, 0.00000000000000000000f, 1.00000000000000000000f, 0.00000000000000000000f, 0.00000000000000000000f, 0.00000000000000000000f, 0.00000000000000000000f, 0.00000000000000000000f, 0.00000000000000000000f, 0.00000000000000000000f, 0.00000000000000000000f, 0.00000000000000000000f, 0.00000000000000000000f, -1.00000000000000000000f, 0.00000000000000000000f, 0.00000000000000000000f, -1.00000000000000000000f, -1.00000000000000000000f, 0.00000000000000000000f, 0.00000000000000000000f, 0.00000000000000000000f, -1.00000000000000000000f, 0.00000000000000000000f, -1.00000000000000000000f, 0.00000000000000000000f},
  {1.00000000000000000000f, -1.00000000000000000000f, 0.00000000000000000000f, 0.00000000000000000000f, 1.00000000000000000000f, 0.00000000000000000000f, -1.00000000000000000000f, 0.00000000000000000000f, 1.00000000000000000000f, 0.00000000000000000000f, 0.00000000000000000000f, 0.00000000000000000000f, 0.00000000000000000000f, 0.00000000000000000000f, 0.00000000000000000000f, 0.00000000000000000000f, -1.00000000000000000000f, 1.00000000000000000000f, 0.00000000000000000000f, 0.00000000000000000000f, 1.00000000000000000000f, 0.00000000000000000000f, 0.00000000000000000000f, -1.00000000000000000000f, 0.00000000000000000000f, 0.00000000000000000000f, 0.00000000000000000000f, 0.00000000000000000000f, 1.00000000000000000000f, 0.00000000000000000000f, 0.00000000000000000000f, 0.00000000000000000000f, 0.00000000000000000000f, 0.00000000000000000000f, 0.00000000000000000000f, 0.00000000000000000000f, 0.00000000000000000000f, 1.00000000000000000000f, 0.00000000000000000000f, 0.00000000000000000000f, 0.00000000000000000000f, 0.00000000000000000000f, 0.00000000000000000000f, 0.00000000000000000000f, 0.00000000000000000000f, 0.00000000000000000000f, 0.00000000000000000000f, 0.00000000000000000000f, -1.00000000000000000000f, -1.00000000000000000000f, 1.00000000000000000000f, 1.00000000000000000000f, 0.00000000000000000000f, 1.00000000000000000000f, 1.00000000000000000000f, 0.00000000000000000000f, 0.00000000000000000000f, 1.00000000000000000000f, 0.00000000000000000000f, 1.00000000000000000000f, 1.00000000000000000000f, -1.00000000000000000000f, 0.00000000000000000000f, 0.00000000000000000000f, 0.00000000000000000000f, 0.00000000000000000000f, 0.00000000000000000000f, 0.00000000000000000000f, 0.00000000000000000000f, 0.00000000000000000000f, 0.00000000000000000000f, -1.00000000000000000000f, 0.00000000000000000000f, 0.00000000000000000000f, 0.00000000000000000000f, 0.00000000000000000000f, 0.00000000000000000000f, -1.00000000000000000000f, 0.00000000000000000000f, 0.00000000000000000000f, 0.00000000000000000000f, 0.00000000000000000000f, 0.00000000000000000000f, -1.00000000000000000000f, 0.00000000000000000000f, 0.00000000000000000000f, 0.00000000000000000000f, 0.00000000000000000000f, 0.00000000000000000000f, 0.00000000000000000000f, 0.00000000000000000000f, 0.00000000000000000000f, 1.00000000000000000000f, 0.00000000000000000000f, 1.00000000000000000000f, 0.00000000000000000000f},
  {0.00000000000000000000f, 0.00000000000000000000f, 0.00000000000000000000f, 0.00000000000000000000f, 0.00000000000000000000f, 0.00000000000000000000f, 1.00000000000000000000f, 0.00000000000000000000f, 0.00000000000000000000f, 0.00000000000000000000f, 0.00000000000000000000f, 0.00000000000000000000f, -1.00000000000000000000f, -1.00000000000000000000f, 0.00000000000000000000f, 0.00000000000000000000f, 0.00000000000000000000f, 0.00000000000000000000f, 1.00000000000000000000f, 1.00000000000000000000f, 1.00000000000000000000f, 0.00000000000000000000f, 0.00000000000000000000f, 0.00000000000000000000f, 0.00000000000000000000f, 0.00000000000000000000f, 0.00000000000000000000f, 0.00000000000000000000f, 0.00000000000000000000f, -1.00000000000000000000f, 0.00000000000000000000f, 0.00000000000000000000f, -1.00000000000000000000f, 0.00000000000000000000f, 0.00000000000000000000f, 0.00000000000000000000f, 0.00000000000000000000f, 1.00000000000000000000f, 0.00000000000000000000f, 0.00000000000000000000f, -1.00000000000000000000f, 0.00000000000000000000f, 0.00000000000000000000f, 0.00000000000000000000f, 0.00000000000000000000f, 0.00000000000000000000f, -1.00000000000000000000f, 0.00000000000000000000f, 0.00000000000000000000f, 0.00000000000000000000f, 0.00000000000000000000f, 0.00000000000000000000f, 0.00000000000000000000f, 0.00000000000000000000f, 1.00000000000000000000f, 1.00000000000000000000f, -1.00000000000000000000f, 1.00000000000000000000f, 0.00000000000000000000f, 0.00000000000000000000f, 0.00000000000000000000f, -1.00000000000000000000f, 0.00000000000000000000f, 0.00000000000000000000f, 0.00000000000000000000f, 0.00000000000000000000f, 0.00000000000000000000f, 0.00000000000000000000f, 0.00000000000000000000f, 0.00000000000000000000f, 0.00000000000000000000f, 0.00000000000000000000f, -1.00000000000000000000f, 0.00000000000000000000f, 0.00000000000000000000f, 0.00000000000000000000f, 0.00000000000000000000f, 0.00000000000000000000f, 0.00000000000000000000f, 0.00000000000000000000f, -1.00000000000000000000f, 0.00000000000000000000f, -1.00000000000000000000f, -1.00000000000000000000f, -1.00000000000000000000f, -1.00000000000000000000f, 0.00000000000000000000f, 0.00000000000000000000f, 0.00000000000000000000f, 0.00000000000000000000f, 0.00000000000000000000f, 0.00000000000000000000f, 0.00000000000000000000f, -1.00000000000000000000f, 0.00000000000000000000f, -1.00000000000000000000f},
  {0.00000000000000000000f, 0.00000000000000000000f, -1.00000000000000000000f, 0.00000000000000000000f, 1.00000000000000000000f, 0.00000000000000000000f, -1.00000000000000000000f, 0.00000000000000000000f, 0.00000000000000000000f, 1.00000000000000000000f, -1.00000000000000000000f, 0.00000000000000000000f, 0.00000000000000000000f, 1.00000000000000000000f, 0.00000000000000000000f, -1.00000000000000000000f, 0.00000000000000000000f, 0.00000000000000000000f, 0.00000000000000000000f, 0.00000000000000000000f, 0.00000000000000000000f, 0.00000000000000000000f, 0.00000000000000000000f, 0.00000000000000000000f, 0.00000000000000000000f, 0.00000000000000000000f, -1.00000000000000000000f, 0.00000000000000000000f, -1.00000000000000000000f, 1.00000000000000000000f, -1.00000000000000000000f, 0.00000000000000000000f, 0.00000000000000000000f, -1.00000000000000000000f, 1.00000000000000000000f, 1.00000000000000000000f, 0.00000000000000000000f, 1.00000000000000000000f, 0.00000000000000000000f, 0.00000000000000000000f, 0.00000000000000000000f, -1.00000000000000000000f, 0.00000000000000000000f, 0.00000000000000000000f, 0.00000000000000000000f, 0.00000000000000000000f, 0.00000000000000000000f, 0.00000000000000000000f, 0.00000000000000000000f, 0.00000000000000000000f, 1.00000000000000000000f, 0.00000000000000000000f, 0.00000000000000000000f, 0.00000000000000000000f, -1.00000000000000000000f, 0.00000000000000000000f, 0.00000000000000000000f, 0.00000000000000000000f, 0.00000000000000000000f, 0.00000000000000000000f, -1.00000000000000000000f, 0.00000000000000000000f, 0.00000000000000000000f, 0.00000000000000000000f, 1.00000000000000000000f, 0.00000000000000000000f, 0.00000000000000000000f, 0.00000000000000000000f, 0.00000000000000000000f, -1.00000000000000000000f, 0.00000000000000000000f, 0.00000000000000000000f, -1.00000000000000000000f, 0.00000000000000000000f, 0.00000000000000000000f, 0.00000000000000000000f, 0.00000000000000000000f, 0.00000000000000000000f, 1.00000000000000000000f, 0.00000000000000000000f, 0.00000000000000000000f, 0.00000000000000000000f, 0.00000000000000000000f, 0.00000000000000000000f, 0.00000000000000000000f, 1.00000000000000000000f, 0.00000000000000000000f, -1.00000000000000000000f, 1.00000000000000000000f, 0.00000000000000000000f, 0.00000000000000000000f, 0.00000000000000000000f, -1.00000000000000000000f, 0.00000000000000000000f, 0.00000000000000000000f, 0.00000000000000000000f},
  {0.00000000000000000000f, 1.00000000000000000000f, -1.00000000000000000000f, 0.00000000000000000000f, -1.00000000000000000000f, 1.00000000000000000000f, 0.00000000000000000000f, 1.00000000000000000000f, 0.00000000000000000000f, 0.00000000000000000000f, 1.00000000000000000000f, 0.00000000000000000000f, -1.00000000000000000000f, 1.00000000000000000000f, -1.00000000000000000000f, 0.00000000000000000000f, 0.00000000000000000000f, -1.00000000000000000000f, 0.00000000000000000000f, -1.00000000000000000000f, 0.00000000000000000000f, 1.00000000000000000000f, 1.00000000000000000000f, -1.00000000000000000000f, -1.00000000000000000000f, 0.00000000000000000000f, 0.00000000000000000000f, 0.00000000000000000000f, -1.00000000000000000000f, 0.00000000000000000000f, 1.00000000000000000000f, 1.00000000000000000000f, 0.00000000000000000000f, 1.00000000000000000000f, 1.00000000000000000000f, 1.00000000000000000000f, 0.00000000000000000000f, 1.00000000000000000000f, 0.00000000000000000000f, -1.00000000000000000000f, 1.00000000000000000000f, 0.00000000000000000000f, 0.00000000000000000000f, 1.00000000000000000000f, 0.00000000000000000000f, 0.00000000000000000000f, 1.00000000000000000000f, 0.00000000000000000000f, 1.00000000000000000000f, -1.00000000000000000000f, 0.00000000000000000000f, 0.00000000000000000000f, 0.00000000000000000000f, 0.00000000000000000000f, 0.00000000000000000000f, 1.00000000000000000000f, 0.00000000000000000000f, -1.00000000000000000000f, 0.00000000000000000000f, -1.00000000000000000000f, -1.00000000000000000000f, -1.00000000000000000000f, 1.00000000000000000000f, 1.00000000000000000000f, 0.00000000000000000000f, 1.00000000000000000000f, -1.00000000000000000000f, -1.00000000000000000000f, 0.00000000000000000000f, 0.00000000000000000000f, 0.00000000000000000000f, 0.00000000000000000000f, 0.00000000000000000000f, 0.00000000000000000000f, 1.00000000000000000000f, -1.00000000000000000000f, 0.00000000000000000000f, 0.00000000000000000000f, 0.00000000000000000000f, 0.00000000000000000000f, -1.00000000000000000000f, -1.00000000000000000000f, -1.00000000000000000000f, 0.00000000000000000000f, -1.00000000000000000000f, 1.00000000000000000000f, 0.00000000000000000000f, 1.00000000000000000000f, -1.00000000000000000000f, -1.00000000000000000000f, -1.00000000000000000000f, 1.00000000000000000000f, 0.00000000000000000000f, -1.00000000000000000000f, 0.00000000000000000000f, 1.00000000000000000000f},
  {1.00000000000000000000f, -1.00000000000000000000f, 1.00000000000000000000f, -1.00000000000000000000f, 1.00000000000000000000f, 1.00000000000000000000f, -1.00000000000000000000f, -1.00000000000000000000f, -1.00000000000000000000f, 1.00000000000000000000f, 1.00000000000000000000f, 0.00000000000000000000f, 1.00000000000000000000f, -1.00000000000000000000f, 0.00000000000000000000f, -1.00000000000000000000f, -1.00000000000000000000f, -1.00000000000000000000f, -1.00000000000000000000f, 1.00000000000000000000f, -1.00000000000000000000f, 1.00000000000000000000f, 1.00000000000000000000f, -1.00000000000000000000f, 1.00000000000000000000f, 1.00000000000000000000f, -1.00000000000000000000f, -1.00000000000000000000f, 0.00000000000000000000f, 1.00000000000000000000f, -1.00000000000000000000f, 1.00000000000000000000f, 1.00000000000000000000f, 1.00000000000000000000f, -1.00000000000000000000f, 1.00000000000000000000f, -1.00000000000000000000f, 1.00000000000000000000f, 1.00000000000000000000f, -1.00000000000000000000f, -1.00000000000000000000f, -1.00000000000000000000f, 1.00000000000000000000f, 1.00000000000000000000f, 0.00000000000000000000f, 1.00000000000000000000f, -1.00000000000000000000f, 1.00000000000000000000f, 1.00000000000000000000f, -1.00000000000000000000f, 1.00000000000000000000f, 1.00000000000000000000f, 1.00000000000000000000f, 1.00000000000000000000f, -1.00000000000000000000f, 1.00000000000000000000f, -1.00000000000000000000f, -1.00000000000000000000f, -1.00000000000000000000f, 1.00000000000000000000f, 1.00000000000000000000f, 1.00000000000000000000f, -1.00000000000000000000f, 1.00000000000000000000f, 1.00000000000000000000f, 1.00000000000000000000f, -1.00000000000000000000f, 1.00000000000000000000f, 1.00000000000000000000f, -1.00000000000000000000f, 1.00000000000000000000f, -1.00000000000000000000f, 1.00000000000000000000f, -1.00000000000000000000f, -1.00000000000000000000f, 1.00000000000000000000f, 1.00000000000000000000f, 1.00000000000000000000f, -1.00000000000000000000f, -1.00000000000000000000f, 1.00000000000000000000f, -1.00000000000000000000f, 1.00000000000000000000f, 1.00000000000000000000f, -1.00000000000000000000f, -1.00000000000000000000f, -1.00000000000000000000f, 1.00000000000000000000f, 1.00000000000000000000f, 1.00000000000000000000f, 1.00000000000000000000f, -1.00000000000000000000f, -1.00000000000000000000f, -1.00000000000000000000f, -1.00000000000000000000f, 1.00000000000000000000f},
  {1.00000000000000000000f, -1.00000000000000000000f, -1.00000000000000000000f, -1.00000000000000000000f, -1.00000000000000000000f, 1.00000000000000000000f, 0.00000000000000000000f, 1.00000000000000000000f, 1.00000000000000000000f, -1.00000000000000000000f, 1.00000000000000000000f, -1.00000000000000000000f, 1.00000000000000000000f, -1.00000000000000000000f, 1.00000000000000000000f, 0.00000000000000000000f, 0.00000000000000000000f, -1.00000000000000000000f, 0.00000000000000000000f, -1.00000000000000000000f, -1.00000000000000000000f, -1.00000000000000000000f, 1.00000000000000000000f, 1.00000000000000000000f, 1.00000000000000000000f, 1.00000000000000000000f, 1.00000000000000000000f, -1.00000000000000000000f, 0.00000000000000000000f, 0.00000000000000000000f, -1.00000000000000000000f, -1.00000000000000000000f, -1.00000000000000000000f, 1.00000000000000000000f, -1.00000000000000000000f, -1.00000000000000000000f, 1.00000000000000000000f, -1.00000000000000000000f, -1.00000000000000000000f, -1.00000000000000000000f, 0.00000000000000000000f, 1.00000000000000000000f, -1.00000000000000000000f, 0.00000000000000000000f, 0.00000000000000000000f, -1.00000000000000000000f, -1.00000000000000000000f, 0.00000000000000000000f, -1.00000000000000000000f, -1.00000000000000000000f, -1.00000000000000000000f, 1.00000000000000000000f, 1.00000000000000000000f, 0.00000000000000000000f, -1.00000000000000000000f, -1.00000000000000000000f, -1.00000000000000000000f, 1.00000000000000000000f, 1.00000000000000000000f, 1.00000000000000000000f, 0.00000000000000000000f, 1.00000000000000000000f, 1.00000000000000000000f, -1.00000000000000000000f, 1.00000000000000000000f, 1.00000000000000000000f, -1.00000000000000000000f, 1.00000000000000000000f, 1.00000000000000000000f, -1.00000000000000000000f, 0.00000000000000000000f, 1.00000000000000000000f, -1.00000000000000000000f, 1.00000000000000000000f, 1.00000000000000000000f, -1.00000000000000000000f, 1.00000000000000000000f, 1.00000000000000000000f, -1.00000000000000000000f, -1.00000000000000000000f, 0.00000000000000000000f, -1.00000000000000000000f, -1.00000000000000000000f, -1.00000000000000000000f, 1.00000000000000000000f, -1.00000000000000000000f, 1.00000000000000000000f, 0.00000000000000000000f, 1.00000000000000000000f, -1.00000000000000000000f, -1.00000000000000000000f, 0.00000000000000000000f, -1.00000000000000000000f, 1.00000000000000000000f, 1.00000000000000000000f, 1.00000000000000000000f},
  {-1.00000000000000000000f, -1.00000000000000000000f, 1.00000000000000000000f, 1.00000000000000000000f, 1.00000000000000000000f, -1.00000000000000000000f, 1.00000000000000000000f, 1.00000000000000000000f, 1.00000000000000000000f, -1.00000000000000000000f, -1.00000000000000000000f, -1.00000000000000000000f, -1.00000000000000000000f, 0.00000000000000000000f, 1.00000000000000000000f, 1.00000000000000000000f, -1.00000000000000000000f, -1.00000000000000000000f, 1.00000000000000000000f, 1.00000000000000000000f, -1.00000000000000000000f, -1.00000000000000000000f, 1.00000000000000000000f, -1.00000000000000000000f, 1.00000000000000000000f, 1.00000000000000000000f, 1.00000000000000000000f, -1.00000000000000000000f, -1.00000000000000000000f, 1.00000000000000000000f, -1.00000000000000000000f, -1.00000000000000000000f, -1.00000000000000000000f, 1.00000000000000000000f, 1.00000000000000000000f, 1.00000000000000000000f, 1.00000000000000000000f, -1.00000000000000000000f, 1.00000000000000000000f, 1.00000000000000000000f, -1.00000000000000000000f, -1.00000000000000000000f, 1.00000000000000000000f, 1.00000000000000000000f, 1.00000000000000000000f, -1.00000000000000000000f, 1.00000000000000000000f, -1.00000000000000000000f, 1.00000000000000000000f, 1.00000000000000000000f, 1.00000000000000000000f, 1.00000000000000000000f, -1.00000000000000000000f, 1.00000000000000000000f, 1.00000000000000000000f, -1.00000000000000000000f, -1.00000000000000000000f, -1.00000000000000000000f, 1.00000000000000000000f, -1.00000000000000000000f, 1.00000000000000000000f, 1.00000000000000000000f, -1.00000000000000000000f, 1.00000000000000000000f, -1.00000000000000000000f, 1.00000000000000000000f, 1.00000000000000000000f, 1.00000000000000000000f, -1.00000000000000000000f, -1.00000000000000000000f, 1.00000000000000000000f, 1.00000000000000000000f, 1.00000000000000000000f, -1.00000000000000000000f, -1.00000000000000000000f, -1.00000000000000000000f, -1.00000000000000000000f, 1.00000000000000000000f, -1.00000000000000000000f, -1.00000000000000000000f, 1.00000000000000000000f, 1.00000000000000000000f, -1.00000000000000000000f, 1.00000000000000000000f, -1.00000000000000000000f, -1.00000000000000000000f, -1.00000000000000000000f, -1.00000000000000000000f, -1.00000000000000000000f, 1.00000000000000000000f, 1.00000000000000000000f, 1.00000000000000000000f, -1.00000000000000000000f, 1.00000000000000000000f, 1.00000000000000000000f, 0.00000000000000000000f},
  {0.00000000000000000000f, 0.00000000000000000000f, 1.00000000000000000000f, 1.00000000000000000000f, -1.00000000000000000000f, 1.00000000000000000000f, -1.00000000000000000000f, 1.00000000000000000000f, 0.00000000000000000000f, 0.00000000000000000000f, 1.00000000000000000000f, 1.00000000000000000000f, 0.00000000000000000000f, 0.00000000000000000000f, -1.00000000000000000000f, 1.00000000000000000000f, -1.00000000000000000000f, 1.00000000000000000000f, -1.00000000000000000000f, -1.00000000000000000000f, -1.00000000000000000000f, -1.00000000000000000000f, 0.00000000000000000000f, 0.00000000000000000000f, -1.00000000000000000000f, 1.00000000000000000000f, -1.00000000000000000000f, -1.00000000000000000000f, 0.00000000000000000000f, 0.00000000000000000000f, 1.00000000000000000000f, -1.00000000000000000000f, 0.00000000000000000000f, -1.00000000000000000000f, 0.00000000000000000000f, 1.00000000000000000000f, 0.00000000000000000000f, 1.00000000000000000000f, -1.00000000000000000000f, -1.00000000000000000000f, 0.00000000000000000000f, 1.00000000000000000000f, 1.00000000000000000000f, 1.00000000000000000000f, 1.00000000000000000000f, 0.00000000000000000000f, -1.00000000000000000000f, 0.00000000000000000000f, -1.00000000000000000000f, 0.00000000000000000000f, 0.00000000000000000000f, -1.00000000000000000000f, 0.00000000000000000000f, 0.00000000000000000000f, -1.00000000000000000000f, 0.00000000000000000000f, -1.00000000000000000000f, -1.00000000000000000000f, 0.00000000000000000000f, 0.00000000000000000000f, 0.00000000000000000000f, 0.00000000000000000000f, 0.00000000000000000000f, -1.00000000000000000000f, -1.00000000000000000000f, 0.00000000000000000000f, 0.00000000000000000000f, -1.00000000000000000000f, 0.00000000000000000000f, 0.00000000000000000000f, 0.00000000000000000000f, 0.00000000000000000000f, 1.00000000000000000000f, 0.00000000000000000000f, -1.00000000000000000000f, 0.00000000000000000000f, -1.00000000000000000000f, 0.00000000000000000000f, 1.00000000000000000000f, 1.00000000000000000000f, 1.00000000000000000000f, 0.00000000000000000000f, -1.00000000000000000000f, 0.00000000000000000000f, 1.00000000000000000000f, 0.00000000000000000000f, 0.00000000000000000000f, 0.00000000000000000000f, 1.00000000000000000000f, -1.00000000000000000000f, -1.00000000000000000000f, 0.00000000000000000000f, -1.00000000000000000000f, -1.00000000000000000000f, 0.00000000000000000000f, -1.00000000000000000000f},
  {0.00000000000000000000f, 0.00000000000000000000f, 0.00000000000000000000f, 0.00000000000000000000f, -1.00000000000000000000f, 0.00000000000000000000f, 0.00000000000000000000f, -1.00000000000000000000f, 1.00000000000000000000f, 0.00000000000000000000f, 0.00000000000000000000f, 0.00000000000000000000f, -1.00000000000000000000f, 0.00000000000000000000f, -1.00000000000000000000f, -1.00000000000000000000f, -1.00000000000000000000f, 1.00000000000000000000f, 0.00000000000000000000f, 0.00000000000000000000f, 0.00000000000000000000f, 0.00000000000000000000f, 0.00000000000000000000f, 0.00000000000000000000f, -1.00000000000000000000f, 0.00000000000000000000f, -1.00000000000000000000f, 1.00000000000000000000f, 0.00000000000000000000f, 1.00000000000000000000f, 0.00000000000000000000f, 0.00000000000000000000f, 0.00000000000000000000f, 1.00000000000000000000f, 0.00000000000000000000f, 0.00000000000000000000f, 1.00000000000000000000f, 1.00000000000000000000f, 0.00000000000000000000f, 0.00000000000000000000f, -1.00000000000000000000f, 0.00000000000000000000f, 0.00000000000000000000f, 0.00000000000000000000f, -1.00000000000000000000f, -1.00000000000000000000f, -1.00000000000000000000f, 0.00000000000000000000f, 0.00000000000000000000f, 0.00000000000000000000f, -1.00000000000000000000f, 0.00000000000000000000f, 0.00000000000000000000f, 0.00000000000000000000f, 0.00000000000000000000f, 0.00000000000000000000f, -1.00000000000000000000f, 0.00000000000000000000f, -1.00000000000000000000f, 0.00000000000000000000f, -1.00000000000000000000f, 0.00000000000000000000f, 0.00000000000000000000f, -1.00000000000000000000f, 1.00000000000000000000f, 0.00000000000000000000f, 1.00000000000000000000f, 0.00000000000000000000f, -1.00000000000000000000f, 1.00000000000000000000f, 1.00000000000000000000f, 0.00000000000000000000f, -1.00000000000000000000f, -1.00000000000000000000f, 1.00000000000000000000f, 0.00000000000000000000f, 0.00000000000000000000f, 0.00000000000000000000f, 0.00000000000000000000f, 0.00000000000000000000f, 0.00000000000000000000f, 0.00000000000000000000f, -1.00000000000000000000f, 0.00000000000000000000f, 0.00000000000000000000f, 0.00000000000000000000f, 1.00000000000000000000f, 1.00000000000000000000f, -1.00000000000000000000f, -1.00000000000000000000f, 1.00000000000000000000f, 0.00000000000000000000f, -1.00000000000000000000f, 1.00000000000000000000f, -1.00000000000000000000f, 0.00000000000000000000f},
  {0.00000000000000000000f, -1.00000000000000000000f, 0.00000000000000000000f, 0.00000000000000000000f, 0.00000000000000000000f, -1.00000000000000000000f, 0.00000000000000000000f, 0.00000000000000000000f, 0.00000000000000000000f, 1.00000000000000000000f, 0.00000000000000000000f, 1.00000000000000000000f, -1.00000000000000000000f, -1.00000000000000000000f, 0.00000000000000000000f, 0.00000000000000000000f, 0.00000000000000000000f, -1.00000000000000000000f, 1.00000000000000000000f, 0.00000000000000000000f, 0.00000000000000000000f, 0.00000000000000000000f, 0.00000000000000000000f, -1.00000000000000000000f, 1.00000000000000000000f, 0.00000000000000000000f, 0.00000000000000000000f, 0.00000000000000000000f, 1.00000000000000000000f, 0.00000000000000000000f, 0.00000000000000000000f, 0.00000000000000000000f, 0.00000000000000000000f, 0.00000000000000000000f, 0.00000000000000000000f, 0.00000000000000000000f, 0.00000000000000000000f, 0.00000000000000000000f, -1.00000000000000000000f, 0.00000000000000000000f, 0.00000000000000000000f, 0.00000000000000000000f, -1.00000000000000000000f, -1.00000000000000000000f, -1.00000000000000000000f, 0.00000000000000000000f, 1.00000000000000000000f, 0.00000000000000000000f, 0.00000000000000000000f, 1.00000000000000000000f, 0.00000000000000000000f, 1.00000000000000000000f, 0.00000000000000000000f, 1.00000000000000000000f, 0.00000000000000000000f, 0.00000000000000000000f, 0.00000000000000000000f, 0.00000000000000000000f, 0.00000000000000000000f, 0.00000000000000000000f, 0.00000000000000000000f, 0.00000000000000000000f, 0.00000000000000000000f, 1.00000000000000000000f, -1.00000000000000000000f, 1.00000000000000000000f, -1.00000000000000000000f, 0.00000000000000000000f, 0.00000000000000000000f, -1.00000000000000000000f, 0.00000000000000000000f, -1.00000000000000000000f, -1.00000000000000000000f, 1.00000000000000000000f, 0.00000000000000000000f, 0.00000000000000000000f, 0.00000000000000000000f, 0.00000000000000000000f, 0.00000000000000000000f, 0.00000000000000000000f, 1.00000000000000000000f, 0.00000000000000000000f, -1.00000000000000000000f, 0.00000000000000000000f, 0.00000000000000000000f, 1.00000000000000000000f, 1.00000000000000000000f, -1.00000000000000000000f, 0.00000000000000000000f, 0.00000000000000000000f, 0.00000000000000000000f, -1.00000000000000000000f, 0.00000000000000000000f, 0.00000000000000000000f, 0.00000000000000000000f, 0.00000000000000000000f},
  {0.00000000000000000000f, 1.00000000000000000000f, -1.00000000000000000000f, 0.00000000000000000000f, 1.00000000000000000000f, -1.00000000000000000000f, 0.00000000000000000000f, 0.00000000000000000000f, 0.00000000000000000000f, 0.00000000000000000000f, 1.00000000000000000000f, 0.00000000000000000000f, -1.00000000000000000000f, 0.00000000000000000000f, 0.00000000000000000000f, 0.00000000000000000000f, 0.00000000000000000000f, -1.00000000000000000000f, 0.00000000000000000000f, -1.00000000000000000000f, 0.00000000000000000000f, 0.00000000000000000000f, -1.00000000000000000000f, 0.00000000000000000000f, -1.00000000000000000000f, 1.00000000000000000000f, 1.00000000000000000000f, -1.00000000000000000000f, -1.00000000000000000000f, 1.00000000000000000000f, 0.00000000000000000000f, 0.00000000000000000000f, 1.00000000000000000000f, 0.00000000000000000000f, 0.00000000000000000000f, -1.00000000000000000000f, -1.00000000000000000000f, -1.00000000000000000000f, 1.00000000000000000000f, -1.00000000000000000000f, -1.00000000000000000000f, 0.00000000000000000000f, 0.00000000000000000000f, 0.00000000000000000000f, 1.00000000000000000000f, 0.00000000000000000000f, 1.00000000000000000000f, 1.00000000000000000000f, 0.00000000000000000000f, 0.00000000000000000000f, 0.00000000000000000000f, 0.00000000000000000000f, 0.00000000000000000000f, -1.00000000000000000000f, 1.00000000000000000000f, -1.00000000000000000000f, 0.00000000000000000000f, 0.00000000000000000000f, 1.00000000000000000000f, -1.00000000000000000000f, 0.00000000000000000000f, 0.00000000000000000000f, 0.00000000000000000000f, 0.00000000000000000000f, -1.00000000000000000000f, 0.00000000000000000000f, 0.00000000000000000000f, 0.00000000000000000000f, 0.00000000000000000000f, -1.00000000000000000000f, 1.00000000000000000000f, 0.00000000000000000000f, 1.00000000000000000000f, 1.00000000000000000000f, 0.00000000000000000000f, 1.00000000000000000000f, 0.00000000000000000000f, 1.00000000000000000000f, -1.00000000000000000000f, -1.00000000000000000000f, 1.00000000000000000000f, 1.00000000000000000000f, 0.00000000000000000000f, 1.00000000000000000000f, 0.00000000000000000000f, 0.00000000000000000000f, 0.00000000000000000000f, -1.00000000000000000000f, 0.00000000000000000000f, 0.00000000000000000000f, 0.00000000000000000000f, -1.00000000000000000000f, -1.00000000000000000000f, 0.00000000000000000000f, -1.00000000000000000000f, 0.00000000000000000000f},
  {1.00000000000000000000f, -1.00000000000000000000f, 1.00000000000000000000f, 0.00000000000000000000f, 1.00000000000000000000f, 1.00000000000000000000f, 1.00000000000000000000f, 0.00000000000000000000f, -1.00000000000000000000f, 1.00000000000000000000f, -1.00000000000000000000f, -1.00000000000000000000f, 0.00000000000000000000f, 1.00000000000000000000f, -1.00000000000000000000f, -1.00000000000000000000f, 0.00000000000000000000f, 1.00000000000000000000f, 1.00000000000000000000f, 0.00000000000000000000f, -1.00000000000000000000f, 1.00000000000000000000f, 0.00000000000000000000f, 1.00000000000000000000f, 1.00000000000000000000f, -1.00000000000000000000f, 1.00000000000000000000f, 1.00000000000000000000f, -1.00000000000000000000f, -1.00000000000000000000f, 1.00000000000000000000f, -1.00000000000000000000f, -1.00000000000000000000f, 1.00000000000000000000f, 1.00000000000000000000f, 1.00000000000000000000f, 0.00000000000000000000f, 0.00000000000000000000f, 1.00000000000000000000f, -1.00000000000000000000f, 1.00000000000000000000f, 0.00000000000000000000f, -1.00000000000000000000f, 0.00000000000000000000f, 0.00000000000000000000f, 0.00000000000000000000f, 0.00000000000000000000f, -1.00000000000000000000f, -1.00000000000000000000f, 0.00000000000000000000f, 0.00000000000000000000f, 0.00000000000000000000f, 1.00000000000000000000f, 1.00000000000000000000f, 0.00000000000000000000f, 1.00000000000000000000f, 0.00000000000000000000f, -1.00000000000000000000f, 1.00000000000000000000f, -1.00000000000000000000f, -1.00000000000000000000f, 0.00000000000000000000f, 1.00000000000000000000f, 1.00000000000000000000f, 1.00000000000000000000f, 1.00000000000000000000f, -1.00000000000000000000f, 1.00000000000000000000f, 0.00000000000000000000f, 0.00000000000000000000f, 0.00000000000000000000f, -1.00000000000000000000f, -1.00000000000000000000f, -1.00000000000000000000f, -1.00000000000000000000f, 0.00000000000000000000f, 0.00000000000000000000f, -1.00000000000000000000f, 1.00000000000000000000f, 0.00000000000000000000f, -1.00000000000000000000f, 0.00000000000000000000f, 0.00000000000000000000f, 0.00000000000000000000f, 0.00000000000000000000f, -1.00000000000000000000f, 0.00000000000000000000f, 0.00000000000000000000f, 0.00000000000000000000f, 0.00000000000000000000f, 1.00000000000000000000f, -1.00000000000000000000f, -1.00000000000000000000f, 1.00000000000000000000f, 1.00000000000000000000f, 1.00000000000000000000f},
  {0.00000000000000000000f, -1.00000000000000000000f, 0.00000000000000000000f, -1.00000000000000000000f, 0.00000000000000000000f, 0.00000000000000000000f, 0.00000000000000000000f, 0.00000000000000000000f, 1.00000000000000000000f, 0.00000000000000000000f, 0.00000000000000000000f, 1.00000000000000000000f, 0.00000000000000000000f, 0.00000000000000000000f, 0.00000000000000000000f, 0.00000000000000000000f, -1.00000000000000000000f, 0.00000000000000000000f, -1.00000000000000000000f, 0.00000000000000000000f, 0.00000000000000000000f, 1.00000000000000000000f, 0.00000000000000000000f, 0.00000000000000000000f, -1.00000000000000000000f, 0.00000000000000000000f, 0.00000000000000000000f, 0.00000000000000000000f, -1.00000000000000000000f, 0.00000000000000000000f, -1.00000000000000000000f, 0.00000000000000000000f, 0.00000000000000000000f, 0.00000000000000000000f, 0.00000000000000000000f, 0.00000000000000000000f, 0.00000000000000000000f, 1.00000000000000000000f, 0.00000000000000000000f, 0.00000000000000000000f, 0.00000000000000000000f, 1.00000000000000000000f, -1.00000000000000000000f, 0.00000000000000000000f, 0.00000000000000000000f, -1.00000000000000000000f, 0.00000000000000000000f, 0.00000000000000000000f, 0.00000000000000000000f, 1.00000000000000000000f, 0.00000000000000000000f, 0.00000000000000000000f, 0.00000000000000000000f, 0.00000000000000000000f, 0.00000000000000000000f, 0.00000000000000000000f, -1.00000000000000000000f, 0.00000000000000000000f, 0.00000000000000000000f, -1.00000000000000000000f, 0.00000000000000000000f, 0.00000000000000000000f, -1.00000000000000000000f, -1.00000000000000000000f, 0.00000000000000000000f, 0.00000000000000000000f, 1.00000000000000000000f, 0.00000000000000000000f, 0.00000000000000000000f, 0.00000000000000000000f, 0.00000000000000000000f, 0.00000000000000000000f, 0.00000000000000000000f, 0.00000000000000000000f, 0.00000000000000000000f, 0.00000000000000000000f, 1.00000000000000000000f, 0.00000000000000000000f, -1.00000000000000000000f, 0.00000000000000000000f, 0.00000000000000000000f, 0.00000000000000000000f, 0.00000000000000000000f, -1.00000000000000000000f, 0.00000000000000000000f, 0.00000000000000000000f, 1.00000000000000000000f, 0.00000000000000000000f, 0.00000000000000000000f, 0.00000000000000000000f, 1.00000000000000000000f, 0.00000000000000000000f, 0.00000000000000000000f, -1.00000000000000000000f, 0.00000000000000000000f, 0.00000000000000000000f},
  {0.00000000000000000000f, 0.00000000000000000000f, 1.00000000000000000000f, -1.00000000000000000000f, 0.00000000000000000000f, 0.00000000000000000000f, 0.00000000000000000000f, 1.00000000000000000000f, 0.00000000000000000000f, 1.00000000000000000000f, 0.00000000000000000000f, 0.00000000000000000000f, 0.00000000000000000000f, 1.00000000000000000000f, 0.00000000000000000000f, 0.00000000000000000000f, 0.00000000000000000000f, 0.00000000000000000000f, -1.00000000000000000000f, 0.00000000000000000000f, 1.00000000000000000000f, 1.00000000000000000000f, 1.00000000000000000000f, 0.00000000000000000000f, 0.00000000000000000000f, -1.00000000000000000000f, 0.00000000000000000000f, 1.00000000000000000000f, -1.00000000000000000000f, 1.00000000000000000000f, 0.00000000000000000000f, -1.00000000000000000000f, 0.00000000000000000000f, 0.00000000000000000000f, 1.00000000000000000000f, 0.00000000000000000000f, 0.00000000000000000000f, 0.00000000000000000000f, 1.00000000000000000000f, 0.00000000000000000000f, 0.00000000000000000000f, 1.00000000000000000000f, 0.00000000000000000000f, 0.00000000000000000000f, -1.00000000000000000000f, -1.00000000000000000000f, 0.00000000000000000000f, 0.00000000000000000000f, -1.00000000000000000000f, 0.00000000000000000000f, -1.00000000000000000000f, 0.00000000000000000000f, 0.00000000000000000000f, 0.00000000000000000000f, 1.00000000000000000000f, 0.00000000000000000000f, 0.00000000000000000000f, 0.00000000000000000000f, 0.00000000000000000000f, 0.00000000000000000000f, 0.00000000000000000000f, 0.00000000000000000000f, -1.00000000000000000000f, 0.00000000000000000000f, 0.00000000000000000000f, -1.00000000000000000000f, 0.00000000000000000000f, 0.00000000000000000000f, 0.00000000000000000000f, 0.00000000000000000000f, 0.00000000000000000000f, 0.00000000000000000000f, 0.00000000000000000000f, 0.00000000000000000000f, 0.00000000000000000000f, 0.00000000000000000000f, 0.00000000000000000000f, 0.00000000000000000000f, 0.00000000000000000000f, 0.00000000000000000000f, 0.00000000000000000000f, 0.00000000000000000000f, -1.00000000000000000000f, 1.00000000000000000000f, 0.00000000000000000000f, 0.00000000000000000000f, 0.00000000000000000000f, 0.00000000000000000000f, 0.00000000000000000000f, -1.00000000000000000000f, 0.00000000000000000000f, 0.00000000000000000000f, 0.00000000000000000000f, 1.00000000000000000000f, 0.00000000000000000000f, 0.00000000000000000000f},
  {0.00000000000000000000f, 1.00000000000000000000f, 1.00000000000000000000f, 1.00000000000000000000f, 0.00000000000000000000f, 0.00000000000000000000f, -1.00000000000000000000f, 0.00000000000000000000f, 0.00000000000000000000f, 0.00000000000000000000f, 0.00000000000000000000f, 0.00000000000000000000f, -1.00000000000000000000f, 0.00000000000000000000f, 0.00000000000000000000f, 0.00000000000000000000f, 0.00000000000000000000f, -1.00000000000000000000f, 1.00000000000000000000f, 0.00000000000000000000f, -1.00000000000000000000f, 1.00000000000000000000f, 1.00000000000000000000f, 1.00000000000000000000f, 1.00000000000000000000f, 1.00000000000000000000f, 1.00000000000000000000f, -1.00000000000000000000f, 0.00000000000000000000f, 0.00000000000000000000f, 1.00000000000000000000f, 1.00000000000000000000f, -1.00000000000000000000f, -1.00000000000000000000f, 0.00000000000000000000f, 1.00000000000000000000f, 0.00000000000000000000f, 0.00000000000000000000f, 0.00000000000000000000f, 1.00000000000000000000f, -1.00000000000000000000f, -1.00000000000000000000f, 0.00000000000000000000f, -1.00000000000000000000f, 0.00000000000000000000f, 1.00000000000000000000f, 0.00000000000000000000f, -1.00000000000000000000f, 0.00000000000000000000f, 0.00000000000000000000f, -1.00000000000000000000f, 1.00000000000000000000f, -1.00000000000000000000f, 0.00000000000000000000f, 1.00000000000000000000f, 0.00000000000000000000f, 0.00000000000000000000f, 0.00000000000000000000f, 0.00000000000000000000f, 0.00000000000000000000f, 1.00000000000000000000f, 0.00000000000000000000f, 0.00000000000000000000f, 0.00000000000000000000f, 0.00000000000000000000f, 1.00000000000000000000f, 1.00000000000000000000f, 0.00000000000000000000f, -1.00000000000000000000f, 1.00000000000000000000f, 1.00000000000000000000f, 0.00000000000000000000f, 1.00000000000000000000f, 1.00000000000000000000f, 0.00000000000000000000f, 0.00000000000000000000f, 0.00000000000000000000f, 1.00000000000000000000f, 0.00000000000000000000f, 1.00000000000000000000f, 0.00000000000000000000f, 1.00000000000000000000f, -1.00000000000000000000f, 1.00000000000000000000f, -1.00000000000000000000f, -1.00000000000000000000f, 0.00000000000000000000f, -1.00000000000000000000f, 0.00000000000000000000f, 1.00000000000000000000f, -1.00000000000000000000f, -1.00000000000000000000f, -1.00000000000000000000f, 0.00000000000000000000f, -1.00000000000000000000f, 0.00000000000000000000f},
  {0.00000000000000000000f, 1.00000000000000000000f, 0.00000000000000000000f, 1.00000000000000000000f, 0.00000000000000000000f, 1.00000000000000000000f, 0.00000000000000000000f, 0.00000000000000000000f, 0.00000000000000000000f, -1.00000000000000000000f, 1.00000000000000000000f, 0.00000000000000000000f, 0.00000000000000000000f, 0.00000000000000000000f, 1.00000000000000000000f, 0.00000000000000000000f, -1.00000000000000000000f, -1.00000000000000000000f, 0.00000000000000000000f, 0.00000000000000000000f, 0.00000000000000000000f, 0.00000000000000000000f, 1.00000000000000000000f, -1.00000000000000000000f, 0.00000000000000000000f, -1.00000000000000000000f, 1.00000000000000000000f, 0.00000000000000000000f, 0.00000000000000000000f, 0.00000000000000000000f, 0.00000000000000000000f, -1.00000000000000000000f, 1.00000000000000000000f, -1.00000000000000000000f, 0.00000000000000000000f, 0.00000000000000000000f, -1.00000000000000000000f, 1.00000000000000000000f, -1.00000000000000000000f, 0.00000000000000000000f, 1.00000000000000000000f, 0.00000000000000000000f, -1.00000000000000000000f, 0.00000000000000000000f, 1.00000000000000000000f, 0.00000000000000000000f, -1.00000000000000000000f, 1.00000000000000000000f, 0.00000000000000000000f, 0.00000000000000000000f, 0.00000000000000000000f, 0.00000000000000000000f, 0.00000000000000000000f, 0.00000000000000000000f, 0.00000000000000000000f, 0.00000000000000000000f, 0.00000000000000000000f, 0.00000000000000000000f, 1.00000000000000000000f, 0.00000000000000000000f, 0.00000000000000000000f, 0.00000000000000000000f, 0.00000000000000000000f, 0.00000000000000000000f, -1.00000000000000000000f, 0.00000000000000000000f, 0.00000000000000000000f, 0.00000000000000000000f, 0.00000000000000000000f, 1.00000000000000000000f, -1.00000000000000000000f, 0.00000000000000000000f, 0.00000000000000000000f, 0.00000000000000000000f, -1.00000000000000000000f, -1.00000000000000000000f, 1.00000000000000000000f, 1.00000000000000000000f, -1.00000000000000000000f, 0.00000000000000000000f, 0.00000000000000000000f, 0.00000000000000000000f, 0.00000000000000000000f, 0.00000000000000000000f, 1.00000000000000000000f, 0.00000000000000000000f, -1.00000000000000000000f, 0.00000000000000000000f, 0.00000000000000000000f, 1.00000000000000000000f, 0.00000000000000000000f, 0.00000000000000000000f, 0.00000000000000000000f, 1.00000000000000000000f, -1.00000000000000000000f, 0.00000000000000000000f},
  {-1.00000000000000000000f, 0.00000000000000000000f, 0.00000000000000000000f, 1.00000000000000000000f, 0.00000000000000000000f, -1.00000000000000000000f, 1.00000000000000000000f, 1.00000000000000000000f, 1.00000000000000000000f, 0.00000000000000000000f, -1.00000000000000000000f, 0.00000000000000000000f, 1.00000000000000000000f, 0.00000000000000000000f, -1.00000000000000000000f, 0.00000000000000000000f, 0.00000000000000000000f, 1.00000000000000000000f, 1.00000000000000000000f, -1.00000000000000000000f, 0.00000000000000000000f, -1.00000000000000000000f, 1.00000000000000000000f, 1.00000000000000000000f, 1.00000000000000000000f, 1.00000000000000000000f, 0.00000000000000000000f, -1.00000000000000000000f, 0.00000000000000000000f, -1.00000000000000000000f, 0.00000000000000000000f, 0.00000000000000000000f, 1.00000000000000000000f, -1.00000000000000000000f, -1.00000000000000000000f, 0.00000000000000000000f, -1.00000000000000000000f, 0.00000000000000000000f, -1.00000000000000000000f, 0.00000000000000000000f, 1.00000000000000000000f, -1.00000000000000000000f, -1.00000000000000000000f, -1.00000000000000000000f, -1.00000000000000000000f, 1.00000000000000000000f, 0.00000000000000000000f, 0.00000000000000000000f, 1.00000000000000000000f, -1.00000000000000000000f, -1.00000000000000000000f, 1.00000000000000000000f, 0.00000000000000000000f, 0.00000000000000000000f, -1.00000000000000000000f, -1.00000000000000000000f, 0.00000000000000000000f, 0.00000000000000000000f, -1.00000000000000000000f, 0.00000000000000000000f, -1.00000000000000000000f, 0.00000000000000000000f, -1.00000000000000000000f, -1.00000000000000000000f, 1.00000000000000000000f, 1.00000000000000000000f, 0.00000000000000000000f, 0.00000000000000000000f, -1.00000000000000000000f, 0.00000000000000000000f, 0.00000000000000000000f, 0.00000000000000000000f, 0.00000000000000000000f, 0.00000000000000000000f, -1.00000000000000000000f, 0.00000000000000000000f, 0.00000000000000000000f, -1.00000000000000000000f, -1.00000000000000000000f, -1.00000000000000000000f, 1.00000000000000000000f, 1.00000000000000000000f, 0.00000000000000000000f, -1.00000000000000000000f, 1.00000000000000000000f, 1.00000000000000000000f, 1.00000000000000000000f, 0.00000000000000000000f, 1.00000000000000000000f, 0.00000000000000000000f, 1.00000000000000000000f, 0.00000000000000000000f, 1.00000000000000000000f, -1.00000000000000000000f, 1.00000000000000000000f, -1.00000000000000000000f},
